<?xml version="1.0"?>
<opencv_storage>
<cascade>
  <stageType>BOOST</stageType>
  <featureType>HAAR</featureType>
  <height>60</height>
  <width>20</width>
  <stageParams>
    <boostType>GAB</boostType>
    <minHitRate>9.9900001287460327e-01</minHitRate>
    <maxFalseAlarm>6.0000002384185791e-01</maxFalseAlarm>
    <weightTrimRate>9.4999999999999996e-01</weightTrimRate>
    <maxDepth>1</maxDepth>
    <maxWeakCount>100</maxWeakCount></stageParams>
  <featureParams>
    <maxCatCount>0</maxCatCount>
    <featSize>1</featSize>
    <mode>ALL</mode></featureParams>
  <stageNum>20</stageNum>
  <stages>
    <!-- stage 0 -->
    <_>
      <maxWeakCount>8</maxWeakCount>
      <stageThreshold>-1.7267565727233887e+00</stageThreshold>
      <weakClassifiers>
        <_>
          <internalNodes>
            0 -1 13 -4.0704660117626190e-02</internalNodes>
          <leafValues>
            -5.3465347737073898e-02 -8.7630659341812134e-01</leafValues></_>
        <_>
          <internalNodes>
            0 -1 137 -3.2802852801978588e-03</internalNodes>
          <leafValues>
            5.2193826436996460e-01 -4.8844724893569946e-01</leafValues></_>
        <_>
          <internalNodes>
            0 -1 64 -2.0056234672665596e-02</internalNodes>
          <leafValues>
            3.1367987394332886e-01 -5.5465459823608398e-01</leafValues></_>
        <_>
          <internalNodes>
            0 -1 173 -1.9422252662479877e-03</internalNodes>
          <leafValues>
            4.6425992250442505e-01 -3.6189711093902588e-01</leafValues></_>
        <_>
          <internalNodes>
            0 -1 15 -9.1254524886608124e-03</internalNodes>
          <leafValues>
            3.4531554579734802e-01 -4.0586784482002258e-01</leafValues></_>
        <_>
          <internalNodes>
            0 -1 101 -4.5473221689462662e-04</internalNodes>
          <leafValues>
            6.0804182291030884e-01 -2.1933694183826447e-01</leafValues></_>
        <_>
          <internalNodes>
            0 -1 164 4.6374066732823849e-04</internalNodes>
          <leafValues>
            -2.3849451541900635e-01 5.1911246776580811e-01</leafValues></_>
        <_>
          <internalNodes>
            0 -1 182 7.7436072751879692e-04</internalNodes>
          <leafValues>
            -2.1126453578472137e-01 5.9086948633193970e-01</leafValues></_></weakClassifiers></_>
    <!-- stage 1 -->
    <_>
      <maxWeakCount>8</maxWeakCount>
      <stageThreshold>-1.5942188501358032e+00</stageThreshold>
      <weakClassifiers>
        <_>
          <internalNodes>
            0 -1 11 -1.0094527900218964e-01</internalNodes>
          <leafValues>
            -1.7821782827377319e-01 -7.6941555738449097e-01</leafValues></_>
        <_>
          <internalNodes>
            0 -1 4 6.3786089420318604e-02</internalNodes>
          <leafValues>
            6.5722718834877014e-02 -8.0957663059234619e-01</leafValues></_>
        <_>
          <internalNodes>
            0 -1 67 -8.1794889410957694e-04</internalNodes>
          <leafValues>
            6.0221445560455322e-01 -2.2571846842765808e-01</leafValues></_>
        <_>
          <internalNodes>
            0 -1 51 -2.5084740482270718e-03</internalNodes>
          <leafValues>
            2.6722273230552673e-01 -4.1488203406333923e-01</leafValues></_>
        <_>
          <internalNodes>
            0 -1 135 5.9863610658794641e-04</internalNodes>
          <leafValues>
            -1.6382066905498505e-01 5.7898336648941040e-01</leafValues></_>
        <_>
          <internalNodes>
            0 -1 68 -4.0680298116058111e-04</internalNodes>
          <leafValues>
            5.3463375568389893e-01 -1.8701562285423279e-01</leafValues></_>
        <_>
          <internalNodes>
            0 -1 117 4.9562364816665649e-02</internalNodes>
          <leafValues>
            1.5047676861286163e-01 -8.0788737535476685e-01</leafValues></_>
        <_>
          <internalNodes>
            0 -1 208 -1.4029300655238330e-04</internalNodes>
          <leafValues>
            2.3537826538085938e-01 -5.0826841592788696e-01</leafValues></_></weakClassifiers></_>
    <!-- stage 2 -->
    <_>
      <maxWeakCount>10</maxWeakCount>
      <stageThreshold>-1.5529700517654419e+00</stageThreshold>
      <weakClassifiers>
        <_>
          <internalNodes>
            0 -1 133 -2.5985363870859146e-02</internalNodes>
          <leafValues>
            8.0392158031463623e-01 -6.7041200399398804e-01</leafValues></_>
        <_>
          <internalNodes>
            0 -1 47 2.5515146553516388e-03</internalNodes>
          <leafValues>
            -5.9838104248046875e-01 8.9631356298923492e-02</leafValues></_>
        <_>
          <internalNodes>
            0 -1 17 -8.1502861576154828e-04</internalNodes>
          <leafValues>
            6.2030363082885742e-01 -1.7672257125377655e-01</leafValues></_>
        <_>
          <internalNodes>
            0 -1 22 -7.3820189572870731e-04</internalNodes>
          <leafValues>
            6.9182467460632324e-01 -1.3499581813812256e-01</leafValues></_>
        <_>
          <internalNodes>
            0 -1 122 -1.5099488198757172e-02</internalNodes>
          <leafValues>
            -8.1137746572494507e-01 1.3411685824394226e-01</leafValues></_>
        <_>
          <internalNodes>
            0 -1 203 8.2782879471778870e-03</internalNodes>
          <leafValues>
            1.4112503826618195e-01 -8.1987667083740234e-01</leafValues></_>
        <_>
          <internalNodes>
            0 -1 235 -8.4619148401543498e-04</internalNodes>
          <leafValues>
            5.7272827625274658e-01 -2.0113202929496765e-01</leafValues></_>
        <_>
          <internalNodes>
            0 -1 62 -8.2608044147491455e-02</internalNodes>
          <leafValues>
            3.2884597778320312e-01 -2.9825857281684875e-01</leafValues></_>
        <_>
          <internalNodes>
            0 -1 135 -1.0086332913488150e-03</internalNodes>
          <leafValues>
            6.7026942968368530e-01 -1.5308813750743866e-01</leafValues></_>
        <_>
          <internalNodes>
            0 -1 131 4.5079840347170830e-03</internalNodes>
          <leafValues>
            -1.6109742224216461e-01 6.7037487030029297e-01</leafValues></_></weakClassifiers></_>
    <!-- stage 3 -->
    <_>
      <maxWeakCount>11</maxWeakCount>
      <stageThreshold>-1.6575328111648560e+00</stageThreshold>
      <weakClassifiers>
        <_>
          <internalNodes>
            0 -1 28 -5.2307955920696259e-02</internalNodes>
          <leafValues>
            -1.0204081982374191e-01 -7.6183205842971802e-01</leafValues></_>
        <_>
          <internalNodes>
            0 -1 46 -2.2463237866759300e-02</internalNodes>
          <leafValues>
            1.3529877364635468e-01 -4.5132264494895935e-01</leafValues></_>
        <_>
          <internalNodes>
            0 -1 73 -2.3005022667348385e-03</internalNodes>
          <leafValues>
            5.7545506954193115e-01 -1.5152533352375031e-01</leafValues></_>
        <_>
          <internalNodes>
            0 -1 185 -5.0140526582254097e-05</internalNodes>
          <leafValues>
            2.5953072309494019e-01 -3.0756771564483643e-01</leafValues></_>
        <_>
          <internalNodes>
            0 -1 209 -7.6797755900770426e-04</internalNodes>
          <leafValues>
            6.0288804769515991e-01 -1.2948125600814819e-01</leafValues></_>
        <_>
          <internalNodes>
            0 -1 30 -6.5746121108531952e-03</internalNodes>
          <leafValues>
            -7.1260470151901245e-01 1.2362969666719437e-01</leafValues></_>
        <_>
          <internalNodes>
            0 -1 98 -8.4475532639771700e-04</internalNodes>
          <leafValues>
            6.3617300987243652e-01 -1.2581083178520203e-01</leafValues></_>
        <_>
          <internalNodes>
            0 -1 66 -4.3215893208980560e-02</internalNodes>
          <leafValues>
            2.3429316282272339e-01 -3.8027691841125488e-01</leafValues></_>
        <_>
          <internalNodes>
            0 -1 213 2.2282551508396864e-03</internalNodes>
          <leafValues>
            -1.9552716612815857e-01 4.5519781112670898e-01</leafValues></_>
        <_>
          <internalNodes>
            0 -1 136 -2.1439749747514725e-02</internalNodes>
          <leafValues>
            5.7874351739883423e-01 -1.5948179364204407e-01</leafValues></_>
        <_>
          <internalNodes>
            0 -1 34 1.0995602933689952e-03</internalNodes>
          <leafValues>
            1.5468287467956543e-01 -6.8577158451080322e-01</leafValues></_></weakClassifiers></_>
    <!-- stage 4 -->
    <_>
      <maxWeakCount>14</maxWeakCount>
      <stageThreshold>-1.6722683906555176e+00</stageThreshold>
      <weakClassifiers>
        <_>
          <internalNodes>
            0 -1 188 2.5217048823833466e-03</internalNodes>
          <leafValues>
            -6.7150980234146118e-01 4.2857143282890320e-01</leafValues></_>
        <_>
          <internalNodes>
            0 -1 238 -3.1764864921569824e-02</internalNodes>
          <leafValues>
            2.0576949417591095e-01 -3.5587418079376221e-01</leafValues></_>
        <_>
          <internalNodes>
            0 -1 91 -1.7255978309549391e-04</internalNodes>
          <leafValues>
            -4.0593093633651733e-01 1.7292430996894836e-01</leafValues></_>
        <_>
          <internalNodes>
            0 -1 207 -3.1029773526825011e-04</internalNodes>
          <leafValues>
            -6.6772478818893433e-01 1.0356739163398743e-01</leafValues></_>
        <_>
          <internalNodes>
            0 -1 146 -4.2168577201664448e-03</internalNodes>
          <leafValues>
            3.8310021162033081e-01 -1.7632479965686798e-01</leafValues></_>
        <_>
          <internalNodes>
            0 -1 237 1.3185556977987289e-02</internalNodes>
          <leafValues>
            -2.5144541263580322e-01 3.2227867841720581e-01</leafValues></_>
        <_>
          <internalNodes>
            0 -1 114 -4.3570180423557758e-04</internalNodes>
          <leafValues>
            -4.9740844964981079e-01 1.7551480233669281e-01</leafValues></_>
        <_>
          <internalNodes>
            0 -1 160 -3.7440480664372444e-03</internalNodes>
          <leafValues>
            5.6914901733398438e-01 -1.4226181805133820e-01</leafValues></_>
        <_>
          <internalNodes>
            0 -1 176 -6.8224864662624896e-05</internalNodes>
          <leafValues>
            3.1133550405502319e-01 -2.7441772818565369e-01</leafValues></_>
        <_>
          <internalNodes>
            0 -1 177 2.0052781328558922e-03</internalNodes>
          <leafValues>
            -1.3262677192687988e-01 6.1189651489257812e-01</leafValues></_>
        <_>
          <internalNodes>
            0 -1 5 7.6704286038875580e-04</internalNodes>
          <leafValues>
            1.6782349348068237e-01 -4.7312152385711670e-01</leafValues></_>
        <_>
          <internalNodes>
            0 -1 35 -5.1676435396075249e-04</internalNodes>
          <leafValues>
            -5.6166678667068481e-01 1.2970830500125885e-01</leafValues></_>
        <_>
          <internalNodes>
            0 -1 68 1.0255906963720918e-03</internalNodes>
          <leafValues>
            -1.1479014903306961e-01 7.4322861433029175e-01</leafValues></_>
        <_>
          <internalNodes>
            0 -1 50 -2.4539628997445107e-02</internalNodes>
          <leafValues>
            3.4474343061447144e-01 -2.1538600325584412e-01</leafValues></_></weakClassifiers></_>
    <!-- stage 5 -->
    <_>
      <maxWeakCount>14</maxWeakCount>
      <stageThreshold>-1.4505722522735596e+00</stageThreshold>
      <weakClassifiers>
        <_>
          <internalNodes>
            0 -1 187 3.3343038521707058e-03</internalNodes>
          <leafValues>
            -6.7923325300216675e-01 3.4090909361839294e-01</leafValues></_>
        <_>
          <internalNodes>
            0 -1 20 -1.0287188924849033e-03</internalNodes>
          <leafValues>
            4.7337639331817627e-01 -2.6267987489700317e-01</leafValues></_>
        <_>
          <internalNodes>
            0 -1 267 9.9718105047941208e-04</internalNodes>
          <leafValues>
            1.4833229780197144e-01 -4.9155068397521973e-01</leafValues></_>
        <_>
          <internalNodes>
            0 -1 229 1.4077015221118927e-03</internalNodes>
          <leafValues>
            -1.1134784668684006e-01 7.4277293682098389e-01</leafValues></_>
        <_>
          <internalNodes>
            0 -1 25 -6.9406413240358233e-04</internalNodes>
          <leafValues>
            5.8588349819183350e-01 -1.0942804068326950e-01</leafValues></_>
        <_>
          <internalNodes>
            0 -1 150 5.7064652442932129e-02</internalNodes>
          <leafValues>
            -1.5554265677928925e-01 4.5161139965057373e-01</leafValues></_>
        <_>
          <internalNodes>
            0 -1 233 1.8551100045442581e-02</internalNodes>
          <leafValues>
            -8.0366618931293488e-02 6.1957633495330811e-01</leafValues></_>
        <_>
          <internalNodes>
            0 -1 121 -2.8407699428498745e-03</internalNodes>
          <leafValues>
            5.2532321214675903e-01 -1.5885372459888458e-01</leafValues></_>
        <_>
          <internalNodes>
            0 -1 118 9.9915335886180401e-04</internalNodes>
          <leafValues>
            -1.1150036752223969e-01 6.2073296308517456e-01</leafValues></_>
        <_>
          <internalNodes>
            0 -1 57 5.4056785302236676e-04</internalNodes>
          <leafValues>
            1.4673928916454315e-01 -5.8145958185195923e-01</leafValues></_>
        <_>
          <internalNodes>
            0 -1 171 -1.0548466816544533e-03</internalNodes>
          <leafValues>
            5.8250188827514648e-01 -1.3973577320575714e-01</leafValues></_>
        <_>
          <internalNodes>
            0 -1 107 2.2060987539589405e-03</internalNodes>
          <leafValues>
            1.3031849265098572e-01 -6.5211254358291626e-01</leafValues></_>
        <_>
          <internalNodes>
            0 -1 153 1.8768259324133396e-03</internalNodes>
          <leafValues>
            -1.9754225015640259e-01 4.5566627383232117e-01</leafValues></_>
        <_>
          <internalNodes>
            0 -1 222 9.4568089116364717e-04</internalNodes>
          <leafValues>
            2.0937174558639526e-01 -4.0714514255523682e-01</leafValues></_></weakClassifiers></_>
    <!-- stage 6 -->
    <_>
      <maxWeakCount>14</maxWeakCount>
      <stageThreshold>-1.6819403171539307e+00</stageThreshold>
      <weakClassifiers>
        <_>
          <internalNodes>
            0 -1 186 8.3712153136730194e-03</internalNodes>
          <leafValues>
            -6.7498397827148438e-01 2.4444444477558136e-01</leafValues></_>
        <_>
          <internalNodes>
            0 -1 234 -1.8046109471470118e-03</internalNodes>
          <leafValues>
            2.6769253611564636e-01 -3.1216716766357422e-01</leafValues></_>
        <_>
          <internalNodes>
            0 -1 27 -5.3441010415554047e-02</internalNodes>
          <leafValues>
            3.2871907949447632e-01 -2.2898103296756744e-01</leafValues></_>
        <_>
          <internalNodes>
            0 -1 253 -1.5562892658635974e-03</internalNodes>
          <leafValues>
            3.9745420217514038e-01 -1.9153623282909393e-01</leafValues></_>
        <_>
          <internalNodes>
            0 -1 189 -1.3268736656755209e-03</internalNodes>
          <leafValues>
            4.8714125156402588e-01 -1.5871839225292206e-01</leafValues></_>
        <_>
          <internalNodes>
            0 -1 144 -8.6436957644764334e-06</internalNodes>
          <leafValues>
            3.0651044845581055e-01 -2.5420469045639038e-01</leafValues></_>
        <_>
          <internalNodes>
            0 -1 152 -1.5160974580794573e-03</internalNodes>
          <leafValues>
            4.0085488557815552e-01 -1.8384960293769836e-01</leafValues></_>
        <_>
          <internalNodes>
            0 -1 42 4.5532686635851860e-04</internalNodes>
          <leafValues>
            2.0420673489570618e-01 -4.2982292175292969e-01</leafValues></_>
        <_>
          <internalNodes>
            0 -1 141 7.5512351468205452e-03</internalNodes>
          <leafValues>
            -1.4454014599323273e-01 6.4211171865463257e-01</leafValues></_>
        <_>
          <internalNodes>
            0 -1 270 -6.5370113588869572e-04</internalNodes>
          <leafValues>
            -5.6406545639038086e-01 1.4775894582271576e-01</leafValues></_>
        <_>
          <internalNodes>
            0 -1 60 2.9815394431352615e-02</internalNodes>
          <leafValues>
            -1.1812252551317215e-01 6.6417914628982544e-01</leafValues></_>
        <_>
          <internalNodes>
            0 -1 12 -3.3109348267316818e-02</internalNodes>
          <leafValues>
            3.2082578539848328e-01 -3.1674313545227051e-01</leafValues></_>
        <_>
          <internalNodes>
            0 -1 140 -9.2109420802444220e-04</internalNodes>
          <leafValues>
            5.6067425012588501e-01 -1.5121470391750336e-01</leafValues></_>
        <_>
          <internalNodes>
            0 -1 199 5.7869788724929094e-04</internalNodes>
          <leafValues>
            1.8273945152759552e-01 -4.9411338567733765e-01</leafValues></_></weakClassifiers></_>
    <!-- stage 7 -->
    <_>
      <maxWeakCount>13</maxWeakCount>
      <stageThreshold>-1.4976304769515991e+00</stageThreshold>
      <weakClassifiers>
        <_>
          <internalNodes>
            0 -1 102 5.6768854847177863e-04</internalNodes>
          <leafValues>
            -7.0963174104690552e-01 -1.2863071262836456e-01</leafValues></_>
        <_>
          <internalNodes>
            0 -1 18 -1.1321026831865311e-03</internalNodes>
          <leafValues>
            4.2044264078140259e-01 -2.6670333743095398e-01</leafValues></_>
        <_>
          <internalNodes>
            0 -1 85 -3.0720397830009460e-02</internalNodes>
          <leafValues>
            2.9457762837409973e-01 -2.5794997811317444e-01</leafValues></_>
        <_>
          <internalNodes>
            0 -1 18 9.4286922831088305e-04</internalNodes>
          <leafValues>
            -1.3863627612590790e-01 5.6609749794006348e-01</leafValues></_>
        <_>
          <internalNodes>
            0 -1 245 -1.6819387674331665e-02</internalNodes>
          <leafValues>
            3.4987846016883850e-01 -1.8635502457618713e-01</leafValues></_>
        <_>
          <internalNodes>
            0 -1 162 4.5535322278738022e-03</internalNodes>
          <leafValues>
            -1.2678746879100800e-01 5.4509210586547852e-01</leafValues></_>
        <_>
          <internalNodes>
            0 -1 193 -1.4151360373944044e-03</internalNodes>
          <leafValues>
            4.7050666809082031e-01 -1.3808412849903107e-01</leafValues></_>
        <_>
          <internalNodes>
            0 -1 41 4.4931028969585896e-04</internalNodes>
          <leafValues>
            1.6730943322181702e-01 -4.3184959888458252e-01</leafValues></_>
        <_>
          <internalNodes>
            0 -1 125 1.0237422247882932e-04</internalNodes>
          <leafValues>
            -1.8760582804679871e-01 3.5678553581237793e-01</leafValues></_>
        <_>
          <internalNodes>
            0 -1 1 -2.8520781779661775e-04</internalNodes>
          <leafValues>
            -4.2784515023231506e-01 1.5397003293037415e-01</leafValues></_>
        <_>
          <internalNodes>
            0 -1 1 3.2418593764305115e-04</internalNodes>
          <leafValues>
            2.0032003521919250e-01 -4.2822590470314026e-01</leafValues></_>
        <_>
          <internalNodes>
            0 -1 143 2.2172970056999475e-04</internalNodes>
          <leafValues>
            -2.7591836452484131e-01 2.6708638668060303e-01</leafValues></_>
        <_>
          <internalNodes>
            0 -1 154 3.7796987453475595e-04</internalNodes>
          <leafValues>
            -1.8038630485534668e-01 4.0331321954727173e-01</leafValues></_></weakClassifiers></_>
    <!-- stage 8 -->
    <_>
      <maxWeakCount>11</maxWeakCount>
      <stageThreshold>-1.4242782592773438e+00</stageThreshold>
      <weakClassifiers>
        <_>
          <internalNodes>
            0 -1 250 -2.0061803516000509e-03</internalNodes>
          <leafValues>
            -9.9415205419063568e-02 -6.8556004762649536e-01</leafValues></_>
        <_>
          <internalNodes>
            0 -1 48 1.1257710866630077e-03</internalNodes>
          <leafValues>
            -2.4025563895702362e-01 4.1560968756675720e-01</leafValues></_>
        <_>
          <internalNodes>
            0 -1 271 2.9174628434702754e-04</internalNodes>
          <leafValues>
            1.2284645438194275e-01 -5.5197608470916748e-01</leafValues></_>
        <_>
          <internalNodes>
            0 -1 40 1.3912329450249672e-03</internalNodes>
          <leafValues>
            9.3372777104377747e-02 -5.8700913190841675e-01</leafValues></_>
        <_>
          <internalNodes>
            0 -1 55 -1.1495552025735378e-03</internalNodes>
          <leafValues>
            5.4237890243530273e-01 -1.1610116809606552e-01</leafValues></_>
        <_>
          <internalNodes>
            0 -1 227 -7.9623311758041382e-03</internalNodes>
          <leafValues>
            3.6183235049247742e-01 -1.6979025304317474e-01</leafValues></_>
        <_>
          <internalNodes>
            0 -1 264 -2.0567481988109648e-04</internalNodes>
          <leafValues>
            -5.0959819555282593e-01 1.1186183243989944e-01</leafValues></_>
        <_>
          <internalNodes>
            0 -1 239 1.7864548135548830e-03</internalNodes>
          <leafValues>
            -2.0871399343013763e-01 2.9610198736190796e-01</leafValues></_>
        <_>
          <internalNodes>
            0 -1 216 2.6229931972920895e-04</internalNodes>
          <leafValues>
            -2.3865000903606415e-01 2.6399126648902893e-01</leafValues></_>
        <_>
          <internalNodes>
            0 -1 194 -1.6234993934631348e-02</internalNodes>
          <leafValues>
            -6.2800151109695435e-01 1.1802840977907181e-01</leafValues></_>
        <_>
          <internalNodes>
            0 -1 155 -1.8528257496654987e-03</internalNodes>
          <leafValues>
            2.0207859575748444e-01 -3.3900412917137146e-01</leafValues></_></weakClassifiers></_>
    <!-- stage 9 -->
    <_>
      <maxWeakCount>15</maxWeakCount>
      <stageThreshold>-1.5088925361633301e+00</stageThreshold>
      <weakClassifiers>
        <_>
          <internalNodes>
            0 -1 157 1.8150761723518372e-02</internalNodes>
          <leafValues>
            -6.8157893419265747e-01 2.2556390613317490e-02</leafValues></_>
        <_>
          <internalNodes>
            0 -1 87 3.2600425183773041e-02</internalNodes>
          <leafValues>
            -5.0029724836349487e-02 -8.4983974695205688e-01</leafValues></_>
        <_>
          <internalNodes>
            0 -1 147 -3.9189392700791359e-03</internalNodes>
          <leafValues>
            2.6853331923484802e-01 -2.4969771504402161e-01</leafValues></_>
        <_>
          <internalNodes>
            0 -1 248 1.3525437563657761e-02</internalNodes>
          <leafValues>
            6.2391594052314758e-02 -9.0164834260940552e-01</leafValues></_>
        <_>
          <internalNodes>
            0 -1 8 -1.8897046148777008e-01</internalNodes>
          <leafValues>
            4.2945611476898193e-01 -1.6905693709850311e-01</leafValues></_>
        <_>
          <internalNodes>
            0 -1 181 1.4312718994915485e-03</internalNodes>
          <leafValues>
            -1.0410821437835693e-01 6.5028774738311768e-01</leafValues></_>
        <_>
          <internalNodes>
            0 -1 272 -2.9147783061489463e-04</internalNodes>
          <leafValues>
            -5.2401721477508545e-01 1.3009323179721832e-01</leafValues></_>
        <_>
          <internalNodes>
            0 -1 210 -1.6898093745112419e-03</internalNodes>
          <leafValues>
            3.8501223921775818e-01 -1.5414665639400482e-01</leafValues></_>
        <_>
          <internalNodes>
            0 -1 256 1.6798446886241436e-03</internalNodes>
          <leafValues>
            1.0763539373874664e-01 -5.4812061786651611e-01</leafValues></_>
        <_>
          <internalNodes>
            0 -1 89 -1.5543138142675161e-03</internalNodes>
          <leafValues>
            5.3240627050399780e-01 -1.2441458553075790e-01</leafValues></_>
        <_>
          <internalNodes>
            0 -1 257 -5.5579363834112883e-04</internalNodes>
          <leafValues>
            -3.3655464649200439e-01 1.8947944045066833e-01</leafValues></_>
        <_>
          <internalNodes>
            0 -1 139 -5.9494236484169960e-04</internalNodes>
          <leafValues>
            -5.8908528089523315e-01 1.0186967998743057e-01</leafValues></_>
        <_>
          <internalNodes>
            0 -1 175 -1.3789207674562931e-02</internalNodes>
          <leafValues>
            5.8555942773818970e-01 -1.1530905961990356e-01</leafValues></_>
        <_>
          <internalNodes>
            0 -1 128 2.1397896111011505e-02</internalNodes>
          <leafValues>
            -1.2191522866487503e-01 5.2089899778366089e-01</leafValues></_>
        <_>
          <internalNodes>
            0 -1 88 -1.1600371450185776e-02</internalNodes>
          <leafValues>
            2.3499326407909393e-01 -2.7286186814308167e-01</leafValues></_></weakClassifiers></_>
    <!-- stage 10 -->
    <_>
      <maxWeakCount>12</maxWeakCount>
      <stageThreshold>-1.4889248609542847e+00</stageThreshold>
      <weakClassifiers>
        <_>
          <internalNodes>
            0 -1 186 8.2385996356606483e-03</internalNodes>
          <leafValues>
            -6.7293965816497803e-01 3.5714287310838699e-02</leafValues></_>
        <_>
          <internalNodes>
            0 -1 179 -1.5057605924084783e-04</internalNodes>
          <leafValues>
            1.3688734173774719e-01 -3.2766821980476379e-01</leafValues></_>
        <_>
          <internalNodes>
            0 -1 260 -4.0665955748409033e-04</internalNodes>
          <leafValues>
            -3.6813381314277649e-01 1.4876912534236908e-01</leafValues></_>
        <_>
          <internalNodes>
            0 -1 52 -1.1965876445174217e-02</internalNodes>
          <leafValues>
            3.8767945766448975e-01 -1.5171471238136292e-01</leafValues></_>
        <_>
          <internalNodes>
            0 -1 14 -1.8707334995269775e-02</internalNodes>
          <leafValues>
            2.3104405403137207e-01 -3.2835632562637329e-01</leafValues></_>
        <_>
          <internalNodes>
            0 -1 163 6.0799220591434278e-06</internalNodes>
          <leafValues>
            -2.9352810978889465e-01 2.1207173168659210e-01</leafValues></_>
        <_>
          <internalNodes>
            0 -1 70 1.7762480303645134e-02</internalNodes>
          <leafValues>
            9.9930994212627411e-02 -7.2072118520736694e-01</leafValues></_>
        <_>
          <internalNodes>
            0 -1 123 2.4136736989021301e-02</internalNodes>
          <leafValues>
            8.4224045276641846e-02 -7.4290096759796143e-01</leafValues></_>
        <_>
          <internalNodes>
            0 -1 191 -1.0641142725944519e-03</internalNodes>
          <leafValues>
            6.0409986972808838e-01 -1.2265426665544510e-01</leafValues></_>
        <_>
          <internalNodes>
            0 -1 32 3.7727113813161850e-03</internalNodes>
          <leafValues>
            8.3703435957431793e-02 -7.4962556362152100e-01</leafValues></_>
        <_>
          <internalNodes>
            0 -1 172 -1.9038886530324817e-03</internalNodes>
          <leafValues>
            5.3179275989532471e-01 -1.2895631790161133e-01</leafValues></_>
        <_>
          <internalNodes>
            0 -1 156 -8.4783940110355616e-04</internalNodes>
          <leafValues>
            4.7996953129768372e-01 -1.2408296763896942e-01</leafValues></_></weakClassifiers></_>
    <!-- stage 11 -->
    <_>
      <maxWeakCount>16</maxWeakCount>
      <stageThreshold>-1.5527232885360718e+00</stageThreshold>
      <weakClassifiers>
        <_>
          <internalNodes>
            0 -1 124 -2.1129352971911430e-02</internalNodes>
          <leafValues>
            6.5420560538768768e-02 -6.7270374298095703e-01</leafValues></_>
        <_>
          <internalNodes>
            0 -1 224 6.0105079319328070e-04</internalNodes>
          <leafValues>
            -2.4607597291469574e-01 3.5061386227607727e-01</leafValues></_>
        <_>
          <internalNodes>
            0 -1 247 -3.0230917036533356e-04</internalNodes>
          <leafValues>
            -3.9366176724433899e-01 1.4547052979469299e-01</leafValues></_>
        <_>
          <internalNodes>
            0 -1 254 2.3034072364680469e-04</internalNodes>
          <leafValues>
            1.4281207323074341e-01 -3.9854311943054199e-01</leafValues></_>
        <_>
          <internalNodes>
            0 -1 252 -1.0814160341396928e-03</internalNodes>
          <leafValues>
            2.8458848595619202e-01 -1.9573688507080078e-01</leafValues></_>
        <_>
          <internalNodes>
            0 -1 39 -2.4464395828545094e-03</internalNodes>
          <leafValues>
            -7.3425203561782837e-01 7.7383421361446381e-02</leafValues></_>
        <_>
          <internalNodes>
            0 -1 86 3.6189635284245014e-04</internalNodes>
          <leafValues>
            -1.5787217020988464e-01 4.1976168751716614e-01</leafValues></_>
        <_>
          <internalNodes>
            0 -1 3 -3.4621308441273868e-04</internalNodes>
          <leafValues>
            -4.6216303110122681e-01 1.2549597024917603e-01</leafValues></_>
        <_>
          <internalNodes>
            0 -1 86 -3.5341767943464220e-04</internalNodes>
          <leafValues>
            4.3461504578590393e-01 -1.4818644523620605e-01</leafValues></_>
        <_>
          <internalNodes>
            0 -1 6 -1.7416188120841980e-01</internalNodes>
          <leafValues>
            3.0182164907455444e-01 -2.1146850287914276e-01</leafValues></_>
        <_>
          <internalNodes>
            0 -1 218 8.4964267443865538e-04</internalNodes>
          <leafValues>
            -1.2407039850950241e-01 5.0915193557739258e-01</leafValues></_>
        <_>
          <internalNodes>
            0 -1 129 2.2299388423562050e-02</internalNodes>
          <leafValues>
            -1.1881919950246811e-01 5.1263678073883057e-01</leafValues></_>
        <_>
          <internalNodes>
            0 -1 9 -8.7439650669693947e-03</internalNodes>
          <leafValues>
            3.3479449152946472e-01 -1.9795764982700348e-01</leafValues></_>
        <_>
          <internalNodes>
            0 -1 10 -2.8028786182403564e-02</internalNodes>
          <leafValues>
            3.6541196703910828e-01 -1.7700609564781189e-01</leafValues></_>
        <_>
          <internalNodes>
            0 -1 168 -5.2575411973521113e-04</internalNodes>
          <leafValues>
            4.4103372097015381e-01 -1.3716544210910797e-01</leafValues></_>
        <_>
          <internalNodes>
            0 -1 265 8.4391207201406360e-04</internalNodes>
          <leafValues>
            1.4173510670661926e-01 -4.8589733242988586e-01</leafValues></_></weakClassifiers></_>
    <!-- stage 12 -->
    <_>
      <maxWeakCount>17</maxWeakCount>
      <stageThreshold>-1.5519798994064331e+00</stageThreshold>
      <weakClassifiers>
        <_>
          <internalNodes>
            0 -1 16 -1.0387512855231762e-02</internalNodes>
          <leafValues>
            1.2500000000000000e-01 -6.6306418180465698e-01</leafValues></_>
        <_>
          <internalNodes>
            0 -1 126 -1.0376966092735529e-03</internalNodes>
          <leafValues>
            2.6794245839118958e-01 -2.6968953013420105e-01</leafValues></_>
        <_>
          <internalNodes>
            0 -1 217 -4.6235820627771318e-04</internalNodes>
          <leafValues>
            3.6341536045074463e-01 -1.5815840661525726e-01</leafValues></_>
        <_>
          <internalNodes>
            0 -1 258 -4.6971926349215209e-04</internalNodes>
          <leafValues>
            -3.8332331180572510e-01 1.4218963682651520e-01</leafValues></_>
        <_>
          <internalNodes>
            0 -1 134 8.9007426140597090e-06</internalNodes>
          <leafValues>
            -2.2648146748542786e-01 2.3946957290172577e-01</leafValues></_>
        <_>
          <internalNodes>
            0 -1 174 -5.6769503280520439e-03</internalNodes>
          <leafValues>
            4.1502439975738525e-01 -1.2140240520238876e-01</leafValues></_>
        <_>
          <internalNodes>
            0 -1 255 4.0296773659065366e-04</internalNodes>
          <leafValues>
            1.8285979330539703e-01 -3.3069369196891785e-01</leafValues></_>
        <_>
          <internalNodes>
            0 -1 21 5.7519390247762203e-04</internalNodes>
          <leafValues>
            -1.5870980918407440e-01 3.7528234720230103e-01</leafValues></_>
        <_>
          <internalNodes>
            0 -1 119 -7.9298317432403564e-03</internalNodes>
          <leafValues>
            1.9940012693405151e-01 -3.0523917078971863e-01</leafValues></_>
        <_>
          <internalNodes>
            0 -1 180 3.1324364244937897e-02</internalNodes>
          <leafValues>
            -2.2192826867103577e-01 3.2196977734565735e-01</leafValues></_>
        <_>
          <internalNodes>
            0 -1 110 4.6669691801071167e-04</internalNodes>
          <leafValues>
            -1.2561944127082825e-01 4.7854250669479370e-01</leafValues></_>
        <_>
          <internalNodes>
            0 -1 259 9.7314277663826942e-03</internalNodes>
          <leafValues>
            -1.2147451192140579e-01 4.9965152144432068e-01</leafValues></_>
        <_>
          <internalNodes>
            0 -1 204 -2.2810134105384350e-03</internalNodes>
          <leafValues>
            3.9589914679527283e-01 -1.4786684513092041e-01</leafValues></_>
        <_>
          <internalNodes>
            0 -1 38 -1.3058324111625552e-03</internalNodes>
          <leafValues>
            -7.9909777641296387e-01 8.1198826432228088e-02</leafValues></_>
        <_>
          <internalNodes>
            0 -1 205 9.9537882488220930e-04</internalNodes>
          <leafValues>
            -1.4598737657070160e-01 5.4528367519378662e-01</leafValues></_>
        <_>
          <internalNodes>
            0 -1 195 2.8210755437612534e-02</internalNodes>
          <leafValues>
            7.7296502888202667e-02 -8.2722419500350952e-01</leafValues></_>
        <_>
          <internalNodes>
            0 -1 69 -8.0516439629718661e-04</internalNodes>
          <leafValues>
            1.5323185920715332e-01 -3.6877483129501343e-01</leafValues></_></weakClassifiers></_>
    <!-- stage 13 -->
    <_>
      <maxWeakCount>14</maxWeakCount>
      <stageThreshold>-1.4359990358352661e+00</stageThreshold>
      <weakClassifiers>
        <_>
          <internalNodes>
            0 -1 116 -5.1626652479171753e-02</internalNodes>
          <leafValues>
            1.6949152573943138e-02 -6.7426711320877075e-01</leafValues></_>
        <_>
          <internalNodes>
            0 -1 212 1.1147002223879099e-03</internalNodes>
          <leafValues>
            -3.0566844344139099e-01 1.6239860653877258e-01</leafValues></_>
        <_>
          <internalNodes>
            0 -1 74 -1.0892656864598393e-03</internalNodes>
          <leafValues>
            4.6024772524833679e-01 -1.2140639871358871e-01</leafValues></_>
        <_>
          <internalNodes>
            0 -1 58 3.0951836379244924e-04</internalNodes>
          <leafValues>
            1.5330198407173157e-01 -3.8858520984649658e-01</leafValues></_>
        <_>
          <internalNodes>
            0 -1 266 -3.5548035521060228e-04</internalNodes>
          <leafValues>
            -5.5403083562850952e-01 9.5669269561767578e-02</leafValues></_>
        <_>
          <internalNodes>
            0 -1 241 9.5831078942865133e-04</internalNodes>
          <leafValues>
            -8.7088547646999359e-02 5.6229013204574585e-01</leafValues></_>
        <_>
          <internalNodes>
            0 -1 169 2.2758636623620987e-02</internalNodes>
          <leafValues>
            -9.6404321491718292e-02 5.7688188552856445e-01</leafValues></_>
        <_>
          <internalNodes>
            0 -1 94 -6.7813895642757416e-02</internalNodes>
          <leafValues>
            1.7218542098999023e-01 -3.1950035691261292e-01</leafValues></_>
        <_>
          <internalNodes>
            0 -1 45 -4.9562454223632812e-01</internalNodes>
          <leafValues>
            -8.8604968786239624e-01 8.9493051171302795e-02</leafValues></_>
        <_>
          <internalNodes>
            0 -1 244 -7.7774829696863890e-04</internalNodes>
          <leafValues>
            5.7206982374191284e-01 -1.1985643953084946e-01</leafValues></_>
        <_>
          <internalNodes>
            0 -1 249 1.8389243632555008e-03</internalNodes>
          <leafValues>
            -1.1374308168888092e-01 4.5321145653724670e-01</leafValues></_>
        <_>
          <internalNodes>
            0 -1 37 -4.5634887646883726e-04</internalNodes>
          <leafValues>
            -3.8803046941757202e-01 1.5416333079338074e-01</leafValues></_>
        <_>
          <internalNodes>
            0 -1 7 -1.2101417779922485e-01</internalNodes>
          <leafValues>
            2.9065838456153870e-01 -1.9169433414936066e-01</leafValues></_>
        <_>
          <internalNodes>
            0 -1 219 1.1414277832955122e-03</internalNodes>
          <leafValues>
            -1.5551163256168365e-01 3.9703541994094849e-01</leafValues></_></weakClassifiers></_>
    <!-- stage 14 -->
    <_>
      <maxWeakCount>16</maxWeakCount>
      <stageThreshold>-1.3258817195892334e+00</stageThreshold>
      <weakClassifiers>
        <_>
          <internalNodes>
            0 -1 96 -6.0125701129436493e-02</internalNodes>
          <leafValues>
            2.4528302252292633e-01 -6.5375000238418579e-01</leafValues></_>
        <_>
          <internalNodes>
            0 -1 29 -7.1071997284889221e-02</internalNodes>
          <leafValues>
            2.3720948398113251e-01 -2.7504494786262512e-01</leafValues></_>
        <_>
          <internalNodes>
            0 -1 72 -6.3885783310979605e-04</internalNodes>
          <leafValues>
            3.9988973736763000e-01 -1.4391615986824036e-01</leafValues></_>
        <_>
          <internalNodes>
            0 -1 106 -1.6323912132065743e-04</internalNodes>
          <leafValues>
            -2.5335466861724854e-01 1.9857002794742584e-01</leafValues></_>
        <_>
          <internalNodes>
            0 -1 26 -1.1761124245822430e-02</internalNodes>
          <leafValues>
            -7.9750722646713257e-01 6.4962990581989288e-02</leafValues></_>
        <_>
          <internalNodes>
            0 -1 23 -1.6071920981630683e-03</internalNodes>
          <leafValues>
            4.1430684924125671e-01 -1.3489873707294464e-01</leafValues></_>
        <_>
          <internalNodes>
            0 -1 80 -4.0163926314562559e-04</internalNodes>
          <leafValues>
            -4.1091251373291016e-01 1.2071195244789124e-01</leafValues></_>
        <_>
          <internalNodes>
            0 -1 242 2.8720049886032939e-04</internalNodes>
          <leafValues>
            -1.3971400260925293e-01 3.4167739748954773e-01</leafValues></_>
        <_>
          <internalNodes>
            0 -1 77 1.3381377793848515e-03</internalNodes>
          <leafValues>
            1.1396861821413040e-01 -5.3642702102661133e-01</leafValues></_>
        <_>
          <internalNodes>
            0 -1 36 6.0446711722761393e-04</internalNodes>
          <leafValues>
            1.6683048009872437e-01 -3.3883666992187500e-01</leafValues></_>
        <_>
          <internalNodes>
            0 -1 90 1.0745260864496231e-02</internalNodes>
          <leafValues>
            -1.5169940888881683e-01 3.8727602362632751e-01</leafValues></_>
        <_>
          <internalNodes>
            0 -1 76 -1.3569595292210579e-02</internalNodes>
          <leafValues>
            3.8007104396820068e-01 -1.4128397405147552e-01</leafValues></_>
        <_>
          <internalNodes>
            0 -1 104 -7.5319153256714344e-04</internalNodes>
          <leafValues>
            3.2198166847229004e-01 -1.6604581475257874e-01</leafValues></_>
        <_>
          <internalNodes>
            0 -1 49 2.0205671899020672e-03</internalNodes>
          <leafValues>
            -1.5375985205173492e-01 3.7247917056083679e-01</leafValues></_>
        <_>
          <internalNodes>
            0 -1 112 1.0140724480152130e-03</internalNodes>
          <leafValues>
            8.2800775766372681e-02 -7.1489596366882324e-01</leafValues></_>
        <_>
          <internalNodes>
            0 -1 71 8.7759178131818771e-04</internalNodes>
          <leafValues>
            -1.1361371725797653e-01 5.1593476533889771e-01</leafValues></_></weakClassifiers></_>
    <!-- stage 15 -->
    <_>
      <maxWeakCount>19</maxWeakCount>
      <stageThreshold>-1.5346200466156006e+00</stageThreshold>
      <weakClassifiers>
        <_>
          <internalNodes>
            0 -1 109 1.9093784503638744e-03</internalNodes>
          <leafValues>
            -6.6155809164047241e-01 3.4482758492231369e-02</leafValues></_>
        <_>
          <internalNodes>
            0 -1 236 4.3269904563203454e-04</internalNodes>
          <leafValues>
            -2.4179375171661377e-01 2.5145632028579712e-01</leafValues></_>
        <_>
          <internalNodes>
            0 -1 33 1.3490284327417612e-03</internalNodes>
          <leafValues>
            8.1551425158977509e-02 -5.6941980123519897e-01</leafValues></_>
        <_>
          <internalNodes>
            0 -1 97 -1.5803808346390724e-03</internalNodes>
          <leafValues>
            4.4067090749740601e-01 -9.3969933688640594e-02</leafValues></_>
        <_>
          <internalNodes>
            0 -1 103 -1.0289851343259215e-03</internalNodes>
          <leafValues>
            3.0335155129432678e-01 -1.6321004927158356e-01</leafValues></_>
        <_>
          <internalNodes>
            0 -1 24 -4.5255487784743309e-03</internalNodes>
          <leafValues>
            5.4836630821228027e-01 -9.3945562839508057e-02</leafValues></_>
        <_>
          <internalNodes>
            0 -1 0 4.1066124686039984e-04</internalNodes>
          <leafValues>
            1.1372973024845123e-01 -4.5499548316001892e-01</leafValues></_>
        <_>
          <internalNodes>
            0 -1 0 -1.3129122089594603e-04</internalNodes>
          <leafValues>
            -3.1215804815292358e-01 2.0200306177139282e-01</leafValues></_>
        <_>
          <internalNodes>
            0 -1 243 -4.8482930287718773e-04</internalNodes>
          <leafValues>
            3.6831536889076233e-01 -1.6777625679969788e-01</leafValues></_>
        <_>
          <internalNodes>
            0 -1 78 -2.0880287047475576e-04</internalNodes>
          <leafValues>
            -3.0472379922866821e-01 1.8139953911304474e-01</leafValues></_>
        <_>
          <internalNodes>
            0 -1 231 -2.5102886138483882e-04</internalNodes>
          <leafValues>
            2.6835247874259949e-01 -1.9599983096122742e-01</leafValues></_>
        <_>
          <internalNodes>
            0 -1 113 -1.1140261776745319e-03</internalNodes>
          <leafValues>
            -5.6867367029190063e-01 1.0354267805814743e-01</leafValues></_>
        <_>
          <internalNodes>
            0 -1 151 5.0985394045710564e-04</internalNodes>
          <leafValues>
            -1.3066762685775757e-01 4.4388729333877563e-01</leafValues></_>
        <_>
          <internalNodes>
            0 -1 111 -8.8796229101717472e-04</internalNodes>
          <leafValues>
            2.7879199385643005e-01 -1.8813070654869080e-01</leafValues></_>
        <_>
          <internalNodes>
            0 -1 93 -5.8825798332691193e-02</internalNodes>
          <leafValues>
            2.8939351439476013e-01 -1.8562349677085876e-01</leafValues></_>
        <_>
          <internalNodes>
            0 -1 221 1.2143371626734734e-02</internalNodes>
          <leafValues>
            -1.2219419330358505e-01 4.9617666006088257e-01</leafValues></_>
        <_>
          <internalNodes>
            0 -1 198 -8.0986914690583944e-04</internalNodes>
          <leafValues>
            3.6482343077659607e-01 -1.5230774879455566e-01</leafValues></_>
        <_>
          <internalNodes>
            0 -1 95 -2.5720624253153801e-03</internalNodes>
          <leafValues>
            3.6798295378684998e-01 -1.5900923311710358e-01</leafValues></_>
        <_>
          <internalNodes>
            0 -1 79 2.5629100855439901e-04</internalNodes>
          <leafValues>
            1.1942546069622040e-01 -5.1219344139099121e-01</leafValues></_></weakClassifiers></_>
    <!-- stage 16 -->
    <_>
      <maxWeakCount>15</maxWeakCount>
      <stageThreshold>-1.3332849740982056e+00</stageThreshold>
      <weakClassifiers>
        <_>
          <internalNodes>
            0 -1 192 -4.7227203845977783e-02</internalNodes>
          <leafValues>
            1. -6.4180928468704224e-01</leafValues></_>
        <_>
          <internalNodes>
            0 -1 183 -1.5656012692488730e-04</internalNodes>
          <leafValues>
            8.5253328084945679e-02 -3.4085068106651306e-01</leafValues></_>
        <_>
          <internalNodes>
            0 -1 202 2.8136040782555938e-04</internalNodes>
          <leafValues>
            -1.7695036530494690e-01 2.6995480060577393e-01</leafValues></_>
        <_>
          <internalNodes>
            0 -1 268 1.7164393793791533e-03</internalNodes>
          <leafValues>
            1.2398420274257660e-01 -4.0923622250556946e-01</leafValues></_>
        <_>
          <internalNodes>
            0 -1 161 1.1122510768473148e-03</internalNodes>
          <leafValues>
            1.0684752464294434e-01 -5.7482087612152100e-01</leafValues></_>
        <_>
          <internalNodes>
            0 -1 197 -4.7893738374114037e-03</internalNodes>
          <leafValues>
            2.8128910064697266e-01 -1.6491563618183136e-01</leafValues></_>
        <_>
          <internalNodes>
            0 -1 178 -4.4323687325231731e-04</internalNodes>
          <leafValues>
            2.3255783319473267e-01 -2.4024926126003265e-01</leafValues></_>
        <_>
          <internalNodes>
            0 -1 246 -8.5193442646414042e-04</internalNodes>
          <leafValues>
            -5.3571510314941406e-01 9.7279116511344910e-02</leafValues></_>
        <_>
          <internalNodes>
            0 -1 108 -1.3650044566020370e-03</internalNodes>
          <leafValues>
            2.2851459681987762e-01 -2.3269242048263550e-01</leafValues></_>
        <_>
          <internalNodes>
            0 -1 92 1.7838625353761017e-04</internalNodes>
          <leafValues>
            1.4525431394577026e-01 -3.6620402336120605e-01</leafValues></_>
        <_>
          <internalNodes>
            0 -1 170 -1.1508881580084562e-03</internalNodes>
          <leafValues>
            2.9464542865753174e-01 -1.8469688296318054e-01</leafValues></_>
        <_>
          <internalNodes>
            0 -1 100 -3.7766277091577649e-04</internalNodes>
          <leafValues>
            3.1632664799690247e-01 -1.5396235883235931e-01</leafValues></_>
        <_>
          <internalNodes>
            0 -1 59 -4.7099869698286057e-04</internalNodes>
          <leafValues>
            -3.2304257154464722e-01 1.8121714890003204e-01</leafValues></_>
        <_>
          <internalNodes>
            0 -1 44 7.4962223879992962e-04</internalNodes>
          <leafValues>
            8.5216470062732697e-02 -5.8571547269821167e-01</leafValues></_>
        <_>
          <internalNodes>
            0 -1 115 1.7483808100223541e-02</internalNodes>
          <leafValues>
            -1.3903412222862244e-01 4.0450540184974670e-01</leafValues></_></weakClassifiers></_>
    <!-- stage 17 -->
    <_>
      <maxWeakCount>20</maxWeakCount>
      <stageThreshold>-1.5360363721847534e+00</stageThreshold>
      <weakClassifiers>
        <_>
          <internalNodes>
            0 -1 261 -3.3383602276444435e-03</internalNodes>
          <leafValues>
            -2.0218579471111298e-01 -6.7755103111267090e-01</leafValues></_>
        <_>
          <internalNodes>
            0 -1 206 -9.5445831539109349e-04</internalNodes>
          <leafValues>
            1.9626379013061523e-01 -2.7335029840469360e-01</leafValues></_>
        <_>
          <internalNodes>
            0 -1 228 1.4351407997310162e-02</internalNodes>
          <leafValues>
            6.0184791684150696e-02 -7.4347913265228271e-01</leafValues></_>
        <_>
          <internalNodes>
            0 -1 159 -4.2823664844036102e-02</internalNodes>
          <leafValues>
            -6.2243425846099854e-01 1.0467565059661865e-01</leafValues></_>
        <_>
          <internalNodes>
            0 -1 142 -1.6677342355251312e-02</internalNodes>
          <leafValues>
            4.7039896249771118e-01 -1.0291650146245956e-01</leafValues></_>
        <_>
          <internalNodes>
            0 -1 138 -6.8778172135353088e-03</internalNodes>
          <leafValues>
            -6.3010072708129883e-01 6.4736232161521912e-02</leafValues></_>
        <_>
          <internalNodes>
            0 -1 130 1.2947057839483023e-03</internalNodes>
          <leafValues>
            -8.0429777503013611e-02 6.7050266265869141e-01</leafValues></_>
        <_>
          <internalNodes>
            0 -1 63 -1.8128234148025513e-01</internalNodes>
          <leafValues>
            2.3505221307277679e-01 -1.9080431759357452e-01</leafValues></_>
        <_>
          <internalNodes>
            0 -1 240 -5.3924159146845341e-04</internalNodes>
          <leafValues>
            4.3259283900260925e-01 -1.2598264217376709e-01</leafValues></_>
        <_>
          <internalNodes>
            0 -1 167 1.6759799327701330e-03</internalNodes>
          <leafValues>
            1.0117643326520920e-01 -5.0963830947875977e-01</leafValues></_>
        <_>
          <internalNodes>
            0 -1 65 -6.6872686147689819e-04</internalNodes>
          <leafValues>
            3.1804361939430237e-01 -1.5961006283760071e-01</leafValues></_>
        <_>
          <internalNodes>
            0 -1 220 1.8863702280214056e-05</internalNodes>
          <leafValues>
            -2.1928898990154266e-01 2.3520994186401367e-01</leafValues></_>
        <_>
          <internalNodes>
            0 -1 83 3.5417912295088172e-04</internalNodes>
          <leafValues>
            1.4310500025749207e-01 -3.6041358113288879e-01</leafValues></_>
        <_>
          <internalNodes>
            0 -1 61 -2.1474924869835377e-03</internalNodes>
          <leafValues>
            3.3500766754150391e-01 -1.5147697925567627e-01</leafValues></_>
        <_>
          <internalNodes>
            0 -1 145 1.2281670933589339e-03</internalNodes>
          <leafValues>
            -1.6101743280887604e-01 3.0548253655433655e-01</leafValues></_>
        <_>
          <internalNodes>
            0 -1 162 4.9458197318017483e-03</internalNodes>
          <leafValues>
            -1.2025416642427444e-01 4.6017384529113770e-01</leafValues></_>
        <_>
          <internalNodes>
            0 -1 43 5.0548673607409000e-04</internalNodes>
          <leafValues>
            1.3431856036186218e-01 -3.8678824901580811e-01</leafValues></_>
        <_>
          <internalNodes>
            0 -1 230 -6.6882866667583585e-04</internalNodes>
          <leafValues>
            2.4191996455192566e-01 -2.0860576629638672e-01</leafValues></_>
        <_>
          <internalNodes>
            0 -1 211 -1.7287641763687134e-02</internalNodes>
          <leafValues>
            -7.3800271749496460e-01 6.3031226396560669e-02</leafValues></_>
        <_>
          <internalNodes>
            0 -1 127 -1.0677448008209467e-03</internalNodes>
          <leafValues>
            3.5056912899017334e-01 -1.6183288395404816e-01</leafValues></_></weakClassifiers></_>
    <!-- stage 18 -->
    <_>
      <maxWeakCount>19</maxWeakCount>
      <stageThreshold>-1.4452533721923828e+00</stageThreshold>
      <weakClassifiers>
        <_>
          <internalNodes>
            0 -1 226 -1.0445739608258009e-03</internalNodes>
          <leafValues>
            -1.3432836532592773e-01 -6.6820275783538818e-01</leafValues></_>
        <_>
          <internalNodes>
            0 -1 184 -6.3263728407036979e-06</internalNodes>
          <leafValues>
            5.8763686567544937e-02 -3.6024031043052673e-01</leafValues></_>
        <_>
          <internalNodes>
            0 -1 31 -3.2065622508525848e-04</internalNodes>
          <leafValues>
            -4.1116306185722351e-01 1.0920251160860062e-01</leafValues></_>
        <_>
          <internalNodes>
            0 -1 196 -1.9066735403612256e-03</internalNodes>
          <leafValues>
            3.5188150405883789e-01 -1.1424201726913452e-01</leafValues></_>
        <_>
          <internalNodes>
            0 -1 190 -9.2727124865632504e-05</internalNodes>
          <leafValues>
            2.0030197501182556e-01 -2.4552547931671143e-01</leafValues></_>
        <_>
          <internalNodes>
            0 -1 223 2.6999717578291893e-02</internalNodes>
          <leafValues>
            -1.7334502935409546e-01 2.9904273152351379e-01</leafValues></_>
        <_>
          <internalNodes>
            0 -1 187 3.4271122422069311e-03</internalNodes>
          <leafValues>
            -9.6324115991592407e-02 5.7654285430908203e-01</leafValues></_>
        <_>
          <internalNodes>
            0 -1 120 -4.3197019840590656e-04</internalNodes>
          <leafValues>
            2.6366212964057922e-01 -1.8559904396533966e-01</leafValues></_>
        <_>
          <internalNodes>
            0 -1 269 2.0128654432483017e-04</internalNodes>
          <leafValues>
            1.4350751042366028e-01 -3.7337377667427063e-01</leafValues></_>
        <_>
          <internalNodes>
            0 -1 214 2.4910732172429562e-03</internalNodes>
          <leafValues>
            1.6266657412052155e-01 -2.8986567258834839e-01</leafValues></_>
        <_>
          <internalNodes>
            0 -1 225 -1.8295065965503454e-03</internalNodes>
          <leafValues>
            -5.7130408287048340e-01 9.3770012259483337e-02</leafValues></_>
        <_>
          <internalNodes>
            0 -1 201 1.6058285254985094e-03</internalNodes>
          <leafValues>
            -2.5065612792968750e-01 2.0723515748977661e-01</leafValues></_>
        <_>
          <internalNodes>
            0 -1 99 2.2819882724434137e-03</internalNodes>
          <leafValues>
            -7.6917968690395355e-02 6.5510910749435425e-01</leafValues></_>
        <_>
          <internalNodes>
            0 -1 132 -4.8096505925059319e-03</internalNodes>
          <leafValues>
            -6.2805593013763428e-01 8.2698084414005280e-02</leafValues></_>
        <_>
          <internalNodes>
            0 -1 54 -6.1135133728384972e-04</internalNodes>
          <leafValues>
            2.8194555640220642e-01 -1.6361364722251892e-01</leafValues></_>
        <_>
          <internalNodes>
            0 -1 263 8.3065824583172798e-04</internalNodes>
          <leafValues>
            1.3952837884426117e-01 -3.5508379340171814e-01</leafValues></_>
        <_>
          <internalNodes>
            0 -1 84 -8.0233626067638397e-03</internalNodes>
          <leafValues>
            3.5617420077323914e-01 -1.4258594810962677e-01</leafValues></_>
        <_>
          <internalNodes>
            0 -1 75 -8.7303121108561754e-04</internalNodes>
          <leafValues>
            2.7380996942520142e-01 -1.8890796601772308e-01</leafValues></_>
        <_>
          <internalNodes>
            0 -1 2 3.4058815799653530e-04</internalNodes>
          <leafValues>
            1.6454204916954041e-01 -3.2649320363998413e-01</leafValues></_></weakClassifiers></_>
    <!-- stage 19 -->
    <_>
      <maxWeakCount>16</maxWeakCount>
      <stageThreshold>-1.4999786615371704e+00</stageThreshold>
      <weakClassifiers>
        <_>
          <internalNodes>
            0 -1 158 1.6616702079772949e-02</internalNodes>
          <leafValues>
            -6.7215275764465332e-01 -8.9552238583564758e-02</leafValues></_>
        <_>
          <internalNodes>
            0 -1 251 -3.0711553990840912e-03</internalNodes>
          <leafValues>
            -6.6522139310836792e-01 -4.8110760748386383e-02</leafValues></_>
        <_>
          <internalNodes>
            0 -1 82 -3.0235505104064941e-01</internalNodes>
          <leafValues>
            -8.1215405464172363e-01 8.8182486593723297e-02</leafValues></_>
        <_>
          <internalNodes>
            0 -1 149 -8.3947218954563141e-02</internalNodes>
          <leafValues>
            2.8420376777648926e-01 -1.7967213690280914e-01</leafValues></_>
        <_>
          <internalNodes>
            0 -1 105 1.1075435206294060e-02</internalNodes>
          <leafValues>
            -1.0996390134096146e-01 4.5516309142112732e-01</leafValues></_>
        <_>
          <internalNodes>
            0 -1 19 1.3003284111618996e-03</internalNodes>
          <leafValues>
            -1.5403975546360016e-01 3.2962739467620850e-01</leafValues></_>
        <_>
          <internalNodes>
            0 -1 148 1.2162739876657724e-03</internalNodes>
          <leafValues>
            1.3203576207160950e-01 -4.8267447948455811e-01</leafValues></_>
        <_>
          <internalNodes>
            0 -1 262 -1.2874770909547806e-03</internalNodes>
          <leafValues>
            3.8871833682060242e-01 -1.2690867483615875e-01</leafValues></_>
        <_>
          <internalNodes>
            0 -1 200 2.2550579160451889e-02</internalNodes>
          <leafValues>
            7.4710786342620850e-02 -5.7491654157638550e-01</leafValues></_>
        <_>
          <internalNodes>
            0 -1 56 2.1373379975557327e-02</internalNodes>
          <leafValues>
            -1.0098193585872650e-01 4.7148129343986511e-01</leafValues></_>
        <_>
          <internalNodes>
            0 -1 232 -9.1694956645369530e-03</internalNodes>
          <leafValues>
            3.9626911282539368e-01 -1.2062792479991913e-01</leafValues></_>
        <_>
          <internalNodes>
            0 -1 215 -2.1531073376536369e-02</internalNodes>
          <leafValues>
            3.4601569175720215e-01 -1.6012939810752869e-01</leafValues></_>
        <_>
          <internalNodes>
            0 -1 165 1.1605384061113000e-03</internalNodes>
          <leafValues>
            -1.7164428532123566e-01 2.8487512469291687e-01</leafValues></_>
        <_>
          <internalNodes>
            0 -1 81 -3.3135159173980355e-04</internalNodes>
          <leafValues>
            -3.3819028735160828e-01 1.4437948167324066e-01</leafValues></_>
        <_>
          <internalNodes>
            0 -1 53 -1.3687824830412865e-03</internalNodes>
          <leafValues>
            2.7194648981094360e-01 -1.8273043632507324e-01</leafValues></_>
        <_>
          <internalNodes>
            0 -1 166 2.7665297966450453e-04</internalNodes>
          <leafValues>
            1.1289792507886887e-01 -4.2922234535217285e-01</leafValues></_></weakClassifiers></_></stages>
  <features>
    <_>
      <rects>
        <_>
          0 1 1 4 -1.</_>
        <_>
          0 3 1 2 2.</_></rects>
      <tilted>0</tilted></_>
    <_>
      <rects>
        <_>
          0 1 2 3 -1.</_>
        <_>
          1 1 1 3 2.</_></rects>
      <tilted>0</tilted></_>
    <_>
      <rects>
        <_>
          0 1 6 1 -1.</_>
        <_>
          3 1 3 1 2.</_></rects>
      <tilted>0</tilted></_>
    <_>
      <rects>
        <_>
          0 2 2 2 -1.</_>
        <_>
          1 2 1 2 2.</_></rects>
      <tilted>0</tilted></_>
    <_>
      <rects>
        <_>
          0 3 19 40 -1.</_>
        <_>
          0 23 19 20 2.</_></rects>
      <tilted>0</tilted></_>
    <_>
      <rects>
        <_>
          0 4 7 2 -1.</_>
        <_>
          0 5 7 1 2.</_></rects>
      <tilted>0</tilted></_>
    <_>
      <rects>
        <_>
          0 4 18 56 -1.</_>
        <_>
          0 18 18 28 2.</_></rects>
      <tilted>0</tilted></_>
    <_>
      <rects>
        <_>
          0 5 20 42 -1.</_>
        <_>
          5 5 10 42 2.</_></rects>
      <tilted>0</tilted></_>
    <_>
      <rects>
        <_>
          0 11 20 39 -1.</_>
        <_>
          0 24 20 13 3.</_></rects>
      <tilted>0</tilted></_>
    <_>
      <rects>
        <_>
          0 12 6 14 -1.</_>
        <_>
          3 12 3 14 2.</_></rects>
      <tilted>0</tilted></_>
    <_>
      <rects>
        <_>
          0 12 8 38 -1.</_>
        <_>
          0 12 4 19 2.</_>
        <_>
          4 31 4 19 2.</_></rects>
      <tilted>0</tilted></_>
    <_>
      <rects>
        <_>
          0 13 20 34 -1.</_>
        <_>
          5 13 10 34 2.</_></rects>
      <tilted>0</tilted></_>
    <_>
      <rects>
        <_>
          0 15 20 12 -1.</_>
        <_>
          5 15 10 12 2.</_></rects>
      <tilted>0</tilted></_>
    <_>
      <rects>
        <_>
          0 18 20 27 -1.</_>
        <_>
          5 18 10 27 2.</_></rects>
      <tilted>0</tilted></_>
    <_>
      <rects>
        <_>
          0 18 12 21 -1.</_>
        <_>
          6 18 6 21 2.</_></rects>
      <tilted>0</tilted></_>
    <_>
      <rects>
        <_>
          0 20 12 15 -1.</_>
        <_>
          6 20 6 15 2.</_></rects>
      <tilted>0</tilted></_>
    <_>
      <rects>
        <_>
          0 23 2 18 -1.</_>
        <_>
          1 23 1 18 2.</_></rects>
      <tilted>0</tilted></_>
    <_>
      <rects>
        <_>
          0 24 3 1 -1.</_>
        <_>
          1 24 1 1 3.</_></rects>
      <tilted>0</tilted></_>
    <_>
      <rects>
        <_>
          0 25 3 1 -1.</_>
        <_>
          1 25 1 1 3.</_></rects>
      <tilted>0</tilted></_>
    <_>
      <rects>
        <_>
          0 25 2 8 -1.</_>
        <_>
          0 25 1 4 2.</_>
        <_>
          1 29 1 4 2.</_></rects>
      <tilted>0</tilted></_>
    <_>
      <rects>
        <_>
          0 26 3 1 -1.</_>
        <_>
          1 26 1 1 3.</_></rects>
      <tilted>0</tilted></_>
    <_>
      <rects>
        <_>
          0 27 3 1 -1.</_>
        <_>
          1 27 1 1 3.</_></rects>
      <tilted>0</tilted></_>
    <_>
      <rects>
        <_>
          0 27 2 2 -1.</_>
        <_>
          0 27 1 1 2.</_>
        <_>
          1 28 1 1 2.</_></rects>
      <tilted>0</tilted></_>
    <_>
      <rects>
        <_>
          0 27 4 3 -1.</_>
        <_>
          0 28 4 1 3.</_></rects>
      <tilted>0</tilted></_>
    <_>
      <rects>
        <_>
          0 28 2 9 -1.</_>
        <_>
          1 28 1 9 2.</_></rects>
      <tilted>0</tilted></_>
    <_>
      <rects>
        <_>
          0 33 2 2 -1.</_>
        <_>
          0 33 1 1 2.</_>
        <_>
          1 34 1 1 2.</_></rects>
      <tilted>0</tilted></_>
    <_>
      <rects>
        <_>
          0 33 12 6 -1.</_>
        <_>
          0 35 12 2 3.</_></rects>
      <tilted>0</tilted></_>
    <_>
      <rects>
        <_>
          0 35 20 18 -1.</_>
        <_>
          5 35 10 18 2.</_></rects>
      <tilted>0</tilted></_>
    <_>
      <rects>
        <_>
          0 37 20 15 -1.</_>
        <_>
          5 37 10 15 2.</_></rects>
      <tilted>0</tilted></_>
    <_>
      <rects>
        <_>
          0 39 20 21 -1.</_>
        <_>
          5 39 10 21 2.</_></rects>
      <tilted>0</tilted></_>
    <_>
      <rects>
        <_>
          0 43 7 6 -1.</_>
        <_>
          0 46 7 3 2.</_></rects>
      <tilted>0</tilted></_>
    <_>
      <rects>
        <_>
          0 45 2 2 -1.</_>
        <_>
          0 46 2 1 2.</_></rects>
      <tilted>0</tilted></_>
    <_>
      <rects>
        <_>
          0 45 2 6 -1.</_>
        <_>
          0 47 2 2 3.</_></rects>
      <tilted>0</tilted></_>
    <_>
      <rects>
        <_>
          0 47 1 6 -1.</_>
        <_>
          0 49 1 2 3.</_></rects>
      <tilted>0</tilted></_>
    <_>
      <rects>
        <_>
          0 47 2 5 -1.</_>
        <_>
          1 47 1 5 2.</_></rects>
      <tilted>0</tilted></_>
    <_>
      <rects>
        <_>
          0 49 2 2 -1.</_>
        <_>
          1 49 1 2 2.</_></rects>
      <tilted>0</tilted></_>
    <_>
      <rects>
        <_>
          0 50 4 10 -1.</_>
        <_>
          1 50 2 10 2.</_></rects>
      <tilted>0</tilted></_>
    <_>
      <rects>
        <_>
          0 52 2 5 -1.</_>
        <_>
          1 52 1 5 2.</_></rects>
      <tilted>0</tilted></_>
    <_>
      <rects>
        <_>
          0 54 2 6 -1.</_>
        <_>
          0 54 1 3 2.</_>
        <_>
          1 57 1 3 2.</_></rects>
      <tilted>0</tilted></_>
    <_>
      <rects>
        <_>
          0 54 4 4 -1.</_>
        <_>
          0 54 2 2 2.</_>
        <_>
          2 56 2 2 2.</_></rects>
      <tilted>0</tilted></_>
    <_>
      <rects>
        <_>
          0 56 4 2 -1.</_>
        <_>
          2 56 2 2 2.</_></rects>
      <tilted>0</tilted></_>
    <_>
      <rects>
        <_>
          0 57 3 3 -1.</_>
        <_>
          1 57 1 3 3.</_></rects>
      <tilted>0</tilted></_>
    <_>
      <rects>
        <_>
          0 58 4 1 -1.</_>
        <_>
          2 58 2 1 2.</_></rects>
      <tilted>0</tilted></_>
    <_>
      <rects>
        <_>
          1 2 3 1 -1.</_>
        <_>
          2 3 1 1 3.</_></rects>
      <tilted>1</tilted></_>
    <_>
      <rects>
        <_>
          1 4 4 1 -1.</_>
        <_>
          2 4 2 1 2.</_></rects>
      <tilted>0</tilted></_>
    <_>
      <rects>
        <_>
          1 9 18 39 -1.</_>
        <_>
          7 22 6 13 9.</_></rects>
      <tilted>0</tilted></_>
    <_>
      <rects>
        <_>
          1 22 18 7 -1.</_>
        <_>
          7 22 6 7 3.</_></rects>
      <tilted>0</tilted></_>
    <_>
      <rects>
        <_>
          1 22 14 1 -1.</_>
        <_>
          1 22 7 1 2.</_></rects>
      <tilted>1</tilted></_>
    <_>
      <rects>
        <_>
          1 23 3 1 -1.</_>
        <_>
          2 23 1 1 3.</_></rects>
      <tilted>0</tilted></_>
    <_>
      <rects>
        <_>
          1 25 3 7 -1.</_>
        <_>
          2 25 1 7 3.</_></rects>
      <tilted>0</tilted></_>
    <_>
      <rects>
        <_>
          1 26 8 18 -1.</_>
        <_>
          1 35 8 9 2.</_></rects>
      <tilted>0</tilted></_>
    <_>
      <rects>
        <_>
          1 27 7 18 -1.</_>
        <_>
          1 36 7 9 2.</_></rects>
      <tilted>0</tilted></_>
    <_>
      <rects>
        <_>
          1 29 6 20 -1.</_>
        <_>
          1 29 3 10 2.</_>
        <_>
          4 39 3 10 2.</_></rects>
      <tilted>0</tilted></_>
    <_>
      <rects>
        <_>
          1 31 12 3 -1.</_>
        <_>
          1 32 12 1 3.</_></rects>
      <tilted>0</tilted></_>
    <_>
      <rects>
        <_>
          1 35 4 3 -1.</_>
        <_>
          1 36 4 1 3.</_></rects>
      <tilted>0</tilted></_>
    <_>
      <rects>
        <_>
          1 36 3 1 -1.</_>
        <_>
          2 36 1 1 3.</_></rects>
      <tilted>0</tilted></_>
    <_>
      <rects>
        <_>
          1 38 12 16 -1.</_>
        <_>
          4 38 6 16 2.</_></rects>
      <tilted>0</tilted></_>
    <_>
      <rects>
        <_>
          1 57 2 1 -1.</_>
        <_>
          1 57 1 1 2.</_></rects>
      <tilted>1</tilted></_>
    <_>
      <rects>
        <_>
          2 1 1 2 -1.</_>
        <_>
          2 1 1 1 2.</_></rects>
      <tilted>1</tilted></_>
    <_>
      <rects>
        <_>
          2 1 3 4 -1.</_>
        <_>
          2 3 3 2 2.</_></rects>
      <tilted>0</tilted></_>
    <_>
      <rects>
        <_>
          2 14 15 11 -1.</_>
        <_>
          7 14 5 11 3.</_></rects>
      <tilted>0</tilted></_>
    <_>
      <rects>
        <_>
          2 16 12 3 -1.</_>
        <_>
          2 17 12 1 3.</_></rects>
      <tilted>0</tilted></_>
    <_>
      <rects>
        <_>
          2 16 18 44 -1.</_>
        <_>
          2 27 18 22 2.</_></rects>
      <tilted>0</tilted></_>
    <_>
      <rects>
        <_>
          2 19 15 36 -1.</_>
        <_>
          7 31 5 12 9.</_></rects>
      <tilted>0</tilted></_>
    <_>
      <rects>
        <_>
          2 20 18 40 -1.</_>
        <_>
          2 30 18 20 2.</_></rects>
      <tilted>0</tilted></_>
    <_>
      <rects>
        <_>
          2 22 2 3 -1.</_>
        <_>
          2 23 2 1 3.</_></rects>
      <tilted>0</tilted></_>
    <_>
      <rects>
        <_>
          2 22 18 21 -1.</_>
        <_>
          8 29 6 7 9.</_></rects>
      <tilted>0</tilted></_>
    <_>
      <rects>
        <_>
          2 23 3 1 -1.</_>
        <_>
          3 23 1 1 3.</_></rects>
      <tilted>0</tilted></_>
    <_>
      <rects>
        <_>
          2 23 2 2 -1.</_>
        <_>
          2 23 1 1 2.</_>
        <_>
          3 24 1 1 2.</_></rects>
      <tilted>0</tilted></_>
    <_>
      <rects>
        <_>
          2 23 3 22 -1.</_>
        <_>
          2 34 3 11 2.</_></rects>
      <tilted>0</tilted></_>
    <_>
      <rects>
        <_>
          2 24 8 2 -1.</_>
        <_>
          2 24 4 2 2.</_></rects>
      <tilted>1</tilted></_>
    <_>
      <rects>
        <_>
          2 25 2 2 -1.</_>
        <_>
          2 25 1 1 2.</_>
        <_>
          3 26 1 1 2.</_></rects>
      <tilted>0</tilted></_>
    <_>
      <rects>
        <_>
          2 26 1 3 -1.</_>
        <_>
          2 27 1 1 3.</_></rects>
      <tilted>0</tilted></_>
    <_>
      <rects>
        <_>
          2 29 3 3 -1.</_>
        <_>
          3 29 1 3 3.</_></rects>
      <tilted>0</tilted></_>
    <_>
      <rects>
        <_>
          2 31 3 1 -1.</_>
        <_>
          3 31 1 1 3.</_></rects>
      <tilted>0</tilted></_>
    <_>
      <rects>
        <_>
          2 36 7 3 -1.</_>
        <_>
          2 37 7 1 3.</_></rects>
      <tilted>0</tilted></_>
    <_>
      <rects>
        <_>
          2 41 12 5 -1.</_>
        <_>
          6 41 4 5 3.</_></rects>
      <tilted>0</tilted></_>
    <_>
      <rects>
        <_>
          2 53 2 2 -1.</_>
        <_>
          2 53 1 2 2.</_></rects>
      <tilted>1</tilted></_>
    <_>
      <rects>
        <_>
          2 58 4 1 -1.</_>
        <_>
          4 58 2 1 2.</_></rects>
      <tilted>0</tilted></_>
    <_>
      <rects>
        <_>
          3 0 2 1 -1.</_>
        <_>
          4 0 1 1 2.</_></rects>
      <tilted>0</tilted></_>
    <_>
      <rects>
        <_>
          3 0 2 4 -1.</_>
        <_>
          3 1 2 2 2.</_></rects>
      <tilted>0</tilted></_>
    <_>
      <rects>
        <_>
          3 1 4 2 -1.</_>
        <_>
          4 1 2 2 2.</_></rects>
      <tilted>0</tilted></_>
    <_>
      <rects>
        <_>
          3 6 11 46 -1.</_>
        <_>
          3 29 11 23 2.</_></rects>
      <tilted>0</tilted></_>
    <_>
      <rects>
        <_>
          3 10 2 1 -1.</_>
        <_>
          3 10 1 1 2.</_></rects>
      <tilted>1</tilted></_>
    <_>
      <rects>
        <_>
          3 18 9 3 -1.</_>
        <_>
          6 19 3 1 9.</_></rects>
      <tilted>0</tilted></_>
    <_>
      <rects>
        <_>
          3 24 6 36 -1.</_>
        <_>
          3 33 6 18 2.</_></rects>
      <tilted>0</tilted></_>
    <_>
      <rects>
        <_>
          3 25 2 2 -1.</_>
        <_>
          3 25 1 1 2.</_>
        <_>
          4 26 1 1 2.</_></rects>
      <tilted>0</tilted></_>
    <_>
      <rects>
        <_>
          3 25 14 15 -1.</_>
        <_>
          3 30 14 5 3.</_></rects>
      <tilted>0</tilted></_>
    <_>
      <rects>
        <_>
          3 29 4 30 -1.</_>
        <_>
          3 39 4 10 3.</_></rects>
      <tilted>0</tilted></_>
    <_>
      <rects>
        <_>
          3 32 3 2 -1.</_>
        <_>
          4 32 1 2 3.</_></rects>
      <tilted>0</tilted></_>
    <_>
      <rects>
        <_>
          3 33 9 12 -1.</_>
        <_>
          6 33 3 12 3.</_></rects>
      <tilted>0</tilted></_>
    <_>
      <rects>
        <_>
          3 57 2 2 -1.</_>
        <_>
          4 57 1 2 2.</_></rects>
      <tilted>0</tilted></_>
    <_>
      <rects>
        <_>
          4 0 1 4 -1.</_>
        <_>
          4 2 1 2 2.</_></rects>
      <tilted>0</tilted></_>
    <_>
      <rects>
        <_>
          4 0 13 24 -1.</_>
        <_>
          4 12 13 12 2.</_></rects>
      <tilted>0</tilted></_>
    <_>
      <rects>
        <_>
          4 10 12 39 -1.</_>
        <_>
          8 23 4 13 9.</_></rects>
      <tilted>0</tilted></_>
    <_>
      <rects>
        <_>
          4 14 2 22 -1.</_>
        <_>
          4 14 1 11 2.</_>
        <_>
          5 25 1 11 2.</_></rects>
      <tilted>0</tilted></_>
    <_>
      <rects>
        <_>
          4 17 8 22 -1.</_>
        <_>
          4 17 4 11 2.</_>
        <_>
          8 28 4 11 2.</_></rects>
      <tilted>0</tilted></_>
    <_>
      <rects>
        <_>
          4 18 3 3 -1.</_>
        <_>
          5 18 1 3 3.</_></rects>
      <tilted>0</tilted></_>
    <_>
      <rects>
        <_>
          4 20 2 2 -1.</_>
        <_>
          4 20 1 1 2.</_>
        <_>
          5 21 1 1 2.</_></rects>
      <tilted>0</tilted></_>
    <_>
      <rects>
        <_>
          4 21 2 4 -1.</_>
        <_>
          4 21 1 2 2.</_>
        <_>
          5 23 1 2 2.</_></rects>
      <tilted>0</tilted></_>
    <_>
      <rects>
        <_>
          4 22 2 2 -1.</_>
        <_>
          4 22 1 1 2.</_>
        <_>
          5 23 1 1 2.</_></rects>
      <tilted>0</tilted></_>
    <_>
      <rects>
        <_>
          4 23 3 1 -1.</_>
        <_>
          5 23 1 1 3.</_></rects>
      <tilted>0</tilted></_>
    <_>
      <rects>
        <_>
          4 23 2 2 -1.</_>
        <_>
          4 23 1 1 2.</_>
        <_>
          5 24 1 1 2.</_></rects>
      <tilted>0</tilted></_>
    <_>
      <rects>
        <_>
          4 23 5 3 -1.</_>
        <_>
          4 24 5 1 3.</_></rects>
      <tilted>0</tilted></_>
    <_>
      <rects>
        <_>
          4 24 1 3 -1.</_>
        <_>
          3 25 1 1 3.</_></rects>
      <tilted>1</tilted></_>
    <_>
      <rects>
        <_>
          4 25 12 23 -1.</_>
        <_>
          8 25 4 23 3.</_></rects>
      <tilted>0</tilted></_>
    <_>
      <rects>
        <_>
          4 25 9 4 -1.</_>
        <_>
          4 25 9 2 2.</_></rects>
      <tilted>1</tilted></_>
    <_>
      <rects>
        <_>
          4 26 12 5 -1.</_>
        <_>
          7 26 6 5 2.</_></rects>
      <tilted>0</tilted></_>
    <_>
      <rects>
        <_>
          4 27 9 4 -1.</_>
        <_>
          3 28 9 2 2.</_></rects>
      <tilted>1</tilted></_>
    <_>
      <rects>
        <_>
          4 31 3 1 -1.</_>
        <_>
          5 31 1 1 3.</_></rects>
      <tilted>0</tilted></_>
    <_>
      <rects>
        <_>
          4 35 2 2 -1.</_>
        <_>
          4 35 1 1 2.</_>
        <_>
          5 36 1 1 2.</_></rects>
      <tilted>0</tilted></_>
    <_>
      <rects>
        <_>
          4 44 11 3 -1.</_>
        <_>
          4 45 11 1 3.</_></rects>
      <tilted>0</tilted></_>
    <_>
      <rects>
        <_>
          4 56 1 2 -1.</_>
        <_>
          4 56 1 1 2.</_></rects>
      <tilted>1</tilted></_>
    <_>
      <rects>
        <_>
          4 56 2 2 -1.</_>
        <_>
          4 56 1 2 2.</_></rects>
      <tilted>1</tilted></_>
    <_>
      <rects>
        <_>
          4 57 2 1 -1.</_>
        <_>
          4 57 1 1 2.</_></rects>
      <tilted>1</tilted></_>
    <_>
      <rects>
        <_>
          5 6 9 11 -1.</_>
        <_>
          8 6 3 11 3.</_></rects>
      <tilted>0</tilted></_>
    <_>
      <rects>
        <_>
          5 12 8 32 -1.</_>
        <_>
          5 12 4 16 2.</_>
        <_>
          9 28 4 16 2.</_></rects>
      <tilted>0</tilted></_>
    <_>
      <rects>
        <_>
          5 15 15 18 -1.</_>
        <_>
          5 21 15 6 3.</_></rects>
      <tilted>0</tilted></_>
    <_>
      <rects>
        <_>
          5 19 3 1 -1.</_>
        <_>
          6 19 1 1 3.</_></rects>
      <tilted>0</tilted></_>
    <_>
      <rects>
        <_>
          5 21 7 18 -1.</_>
        <_>
          5 30 7 9 2.</_></rects>
      <tilted>0</tilted></_>
    <_>
      <rects>
        <_>
          5 22 2 3 -1.</_>
        <_>
          5 23 2 1 3.</_></rects>
      <tilted>0</tilted></_>
    <_>
      <rects>
        <_>
          5 23 3 3 -1.</_>
        <_>
          6 24 1 1 9.</_></rects>
      <tilted>0</tilted></_>
    <_>
      <rects>
        <_>
          5 23 8 12 -1.</_>
        <_>
          5 27 8 4 3.</_></rects>
      <tilted>0</tilted></_>
    <_>
      <rects>
        <_>
          5 24 10 12 -1.</_>
        <_>
          5 28 10 4 3.</_></rects>
      <tilted>0</tilted></_>
    <_>
      <rects>
        <_>
          5 28 9 3 -1.</_>
        <_>
          8 28 3 3 3.</_></rects>
      <tilted>0</tilted></_>
    <_>
      <rects>
        <_>
          5 30 9 5 -1.</_>
        <_>
          8 30 3 5 3.</_></rects>
      <tilted>0</tilted></_>
    <_>
      <rects>
        <_>
          5 31 3 3 -1.</_>
        <_>
          5 32 3 1 3.</_></rects>
      <tilted>0</tilted></_>
    <_>
      <rects>
        <_>
          5 40 5 3 -1.</_>
        <_>
          5 41 5 1 3.</_></rects>
      <tilted>0</tilted></_>
    <_>
      <rects>
        <_>
          6 5 12 25 -1.</_>
        <_>
          9 5 6 25 2.</_></rects>
      <tilted>0</tilted></_>
    <_>
      <rects>
        <_>
          6 6 9 5 -1.</_>
        <_>
          9 9 3 5 3.</_></rects>
      <tilted>1</tilted></_>
    <_>
      <rects>
        <_>
          6 25 2 2 -1.</_>
        <_>
          6 25 1 1 2.</_>
        <_>
          7 26 1 1 2.</_></rects>
      <tilted>0</tilted></_>
    <_>
      <rects>
        <_>
          6 27 3 3 -1.</_>
        <_>
          7 28 1 1 9.</_></rects>
      <tilted>0</tilted></_>
    <_>
      <rects>
        <_>
          6 27 4 6 -1.</_>
        <_>
          6 27 2 6 2.</_></rects>
      <tilted>1</tilted></_>
    <_>
      <rects>
        <_>
          6 27 6 7 -1.</_>
        <_>
          8 27 2 7 3.</_></rects>
      <tilted>0</tilted></_>
    <_>
      <rects>
        <_>
          6 28 2 1 -1.</_>
        <_>
          7 28 1 1 2.</_></rects>
      <tilted>0</tilted></_>
    <_>
      <rects>
        <_>
          6 28 3 1 -1.</_>
        <_>
          7 28 1 1 3.</_></rects>
      <tilted>0</tilted></_>
    <_>
      <rects>
        <_>
          6 28 6 6 -1.</_>
        <_>
          8 30 2 2 9.</_></rects>
      <tilted>0</tilted></_>
    <_>
      <rects>
        <_>
          6 29 4 3 -1.</_>
        <_>
          8 29 2 3 2.</_></rects>
      <tilted>0</tilted></_>
    <_>
      <rects>
        <_>
          6 36 7 6 -1.</_>
        <_>
          6 38 7 2 3.</_></rects>
      <tilted>0</tilted></_>
    <_>
      <rects>
        <_>
          6 58 2 2 -1.</_>
        <_>
          7 58 1 2 2.</_></rects>
      <tilted>0</tilted></_>
    <_>
      <rects>
        <_>
          7 21 3 1 -1.</_>
        <_>
          8 21 1 1 3.</_></rects>
      <tilted>0</tilted></_>
    <_>
      <rects>
        <_>
          7 23 6 3 -1.</_>
        <_>
          6 24 6 1 3.</_></rects>
      <tilted>1</tilted></_>
    <_>
      <rects>
        <_>
          7 24 10 10 -1.</_>
        <_>
          7 24 5 5 2.</_>
        <_>
          12 29 5 5 2.</_></rects>
      <tilted>0</tilted></_>
    <_>
      <rects>
        <_>
          7 26 1 4 -1.</_>
        <_>
          7 28 1 2 2.</_></rects>
      <tilted>0</tilted></_>
    <_>
      <rects>
        <_>
          7 27 2 1 -1.</_>
        <_>
          7 27 1 1 2.</_></rects>
      <tilted>1</tilted></_>
    <_>
      <rects>
        <_>
          7 27 6 3 -1.</_>
        <_>
          9 29 2 3 3.</_></rects>
      <tilted>1</tilted></_>
    <_>
      <rects>
        <_>
          7 28 3 6 -1.</_>
        <_>
          8 30 1 2 9.</_></rects>
      <tilted>0</tilted></_>
    <_>
      <rects>
        <_>
          7 28 7 16 -1.</_>
        <_>
          7 36 7 8 2.</_></rects>
      <tilted>0</tilted></_>
    <_>
      <rects>
        <_>
          7 57 4 3 -1.</_>
        <_>
          8 57 2 3 2.</_></rects>
      <tilted>0</tilted></_>
    <_>
      <rects>
        <_>
          8 5 5 50 -1.</_>
        <_>
          8 30 5 25 2.</_></rects>
      <tilted>0</tilted></_>
    <_>
      <rects>
        <_>
          8 10 12 17 -1.</_>
        <_>
          14 10 6 17 2.</_></rects>
      <tilted>0</tilted></_>
    <_>
      <rects>
        <_>
          8 15 2 2 -1.</_>
        <_>
          8 15 1 1 2.</_>
        <_>
          9 16 1 1 2.</_></rects>
      <tilted>0</tilted></_>
    <_>
      <rects>
        <_>
          8 17 6 3 -1.</_>
        <_>
          8 18 6 1 3.</_></rects>
      <tilted>0</tilted></_>
    <_>
      <rects>
        <_>
          8 18 6 3 -1.</_>
        <_>
          8 19 6 1 3.</_></rects>
      <tilted>0</tilted></_>
    <_>
      <rects>
        <_>
          8 19 2 2 -1.</_>
        <_>
          8 19 1 1 2.</_>
        <_>
          9 20 1 1 2.</_></rects>
      <tilted>0</tilted></_>
    <_>
      <rects>
        <_>
          8 19 5 15 -1.</_>
        <_>
          8 24 5 5 3.</_></rects>
      <tilted>0</tilted></_>
    <_>
      <rects>
        <_>
          8 21 3 1 -1.</_>
        <_>
          9 21 1 1 3.</_></rects>
      <tilted>0</tilted></_>
    <_>
      <rects>
        <_>
          8 25 6 7 -1.</_>
        <_>
          11 25 3 7 2.</_></rects>
      <tilted>0</tilted></_>
    <_>
      <rects>
        <_>
          8 26 9 5 -1.</_>
        <_>
          11 26 3 5 3.</_></rects>
      <tilted>0</tilted></_>
    <_>
      <rects>
        <_>
          8 26 12 9 -1.</_>
        <_>
          12 29 4 3 9.</_></rects>
      <tilted>0</tilted></_>
    <_>
      <rects>
        <_>
          8 28 4 2 -1.</_>
        <_>
          10 28 2 2 2.</_></rects>
      <tilted>0</tilted></_>
    <_>
      <rects>
        <_>
          8 29 4 1 -1.</_>
        <_>
          9 30 2 1 2.</_></rects>
      <tilted>1</tilted></_>
    <_>
      <rects>
        <_>
          8 29 4 3 -1.</_>
        <_>
          10 29 2 3 2.</_></rects>
      <tilted>0</tilted></_>
    <_>
      <rects>
        <_>
          8 30 2 1 -1.</_>
        <_>
          9 30 1 1 2.</_></rects>
      <tilted>0</tilted></_>
    <_>
      <rects>
        <_>
          8 30 3 2 -1.</_>
        <_>
          9 30 1 2 3.</_></rects>
      <tilted>0</tilted></_>
    <_>
      <rects>
        <_>
          8 36 2 12 -1.</_>
        <_>
          8 36 1 6 2.</_>
        <_>
          9 42 1 6 2.</_></rects>
      <tilted>0</tilted></_>
    <_>
      <rects>
        <_>
          8 47 1 2 -1.</_>
        <_>
          8 48 1 1 2.</_></rects>
      <tilted>0</tilted></_>
    <_>
      <rects>
        <_>
          8 57 4 3 -1.</_>
        <_>
          10 57 2 3 2.</_></rects>
      <tilted>0</tilted></_>
    <_>
      <rects>
        <_>
          9 11 2 2 -1.</_>
        <_>
          9 11 1 1 2.</_>
        <_>
          10 12 1 1 2.</_></rects>
      <tilted>0</tilted></_>
    <_>
      <rects>
        <_>
          9 16 6 9 -1.</_>
        <_>
          6 19 6 3 3.</_></rects>
      <tilted>1</tilted></_>
    <_>
      <rects>
        <_>
          9 17 7 3 -1.</_>
        <_>
          9 18 7 1 3.</_></rects>
      <tilted>0</tilted></_>
    <_>
      <rects>
        <_>
          9 18 3 1 -1.</_>
        <_>
          10 18 1 1 3.</_></rects>
      <tilted>0</tilted></_>
    <_>
      <rects>
        <_>
          9 21 3 2 -1.</_>
        <_>
          10 21 1 2 3.</_></rects>
      <tilted>0</tilted></_>
    <_>
      <rects>
        <_>
          9 22 6 3 -1.</_>
        <_>
          8 23 6 1 3.</_></rects>
      <tilted>1</tilted></_>
    <_>
      <rects>
        <_>
          9 23 2 4 -1.</_>
        <_>
          9 23 2 2 2.</_></rects>
      <tilted>1</tilted></_>
    <_>
      <rects>
        <_>
          9 25 4 14 -1.</_>
        <_>
          11 25 2 14 2.</_></rects>
      <tilted>0</tilted></_>
    <_>
      <rects>
        <_>
          9 29 2 2 -1.</_>
        <_>
          9 29 1 1 2.</_>
        <_>
          10 30 1 1 2.</_></rects>
      <tilted>0</tilted></_>
    <_>
      <rects>
        <_>
          9 30 3 2 -1.</_>
        <_>
          10 30 1 2 3.</_></rects>
      <tilted>0</tilted></_>
    <_>
      <rects>
        <_>
          9 32 3 3 -1.</_>
        <_>
          10 33 1 1 9.</_></rects>
      <tilted>0</tilted></_>
    <_>
      <rects>
        <_>
          9 36 3 1 -1.</_>
        <_>
          10 36 1 1 3.</_></rects>
      <tilted>0</tilted></_>
    <_>
      <rects>
        <_>
          10 4 10 24 -1.</_>
        <_>
          15 4 5 24 2.</_></rects>
      <tilted>0</tilted></_>
    <_>
      <rects>
        <_>
          10 10 3 1 -1.</_>
        <_>
          11 10 1 1 3.</_></rects>
      <tilted>0</tilted></_>
    <_>
      <rects>
        <_>
          10 17 3 2 -1.</_>
        <_>
          11 17 1 2 3.</_></rects>
      <tilted>0</tilted></_>
    <_>
      <rects>
        <_>
          10 25 6 2 -1.</_>
        <_>
          10 25 6 1 2.</_></rects>
      <tilted>1</tilted></_>
    <_>
      <rects>
        <_>
          10 29 1 2 -1.</_>
        <_>
          10 30 1 1 2.</_></rects>
      <tilted>0</tilted></_>
    <_>
      <rects>
        <_>
          10 29 1 3 -1.</_>
        <_>
          10 30 1 1 3.</_></rects>
      <tilted>0</tilted></_>
    <_>
      <rects>
        <_>
          10 29 3 3 -1.</_>
        <_>
          11 30 1 1 9.</_></rects>
      <tilted>0</tilted></_>
    <_>
      <rects>
        <_>
          10 29 3 2 -1.</_>
        <_>
          11 29 1 2 3.</_></rects>
      <tilted>0</tilted></_>
    <_>
      <rects>
        <_>
          10 30 3 1 -1.</_>
        <_>
          11 30 1 1 3.</_></rects>
      <tilted>0</tilted></_>
    <_>
      <rects>
        <_>
          10 30 3 2 -1.</_>
        <_>
          11 30 1 2 3.</_></rects>
      <tilted>0</tilted></_>
    <_>
      <rects>
        <_>
          10 31 3 1 -1.</_>
        <_>
          11 31 1 1 3.</_></rects>
      <tilted>0</tilted></_>
    <_>
      <rects>
        <_>
          11 16 2 2 -1.</_>
        <_>
          11 16 1 1 2.</_>
        <_>
          12 17 1 1 2.</_></rects>
      <tilted>0</tilted></_>
    <_>
      <rects>
        <_>
          11 18 2 26 -1.</_>
        <_>
          11 31 2 13 2.</_></rects>
      <tilted>0</tilted></_>
    <_>
      <rects>
        <_>
          11 19 3 2 -1.</_>
        <_>
          12 19 1 2 3.</_></rects>
      <tilted>0</tilted></_>
    <_>
      <rects>
        <_>
          11 20 6 10 -1.</_>
        <_>
          11 25 6 5 2.</_></rects>
      <tilted>0</tilted></_>
    <_>
      <rects>
        <_>
          11 28 9 6 -1.</_>
        <_>
          11 28 9 3 2.</_></rects>
      <tilted>1</tilted></_>
    <_>
      <rects>
        <_>
          11 30 3 3 -1.</_>
        <_>
          12 31 1 1 9.</_></rects>
      <tilted>0</tilted></_>
    <_>
      <rects>
        <_>
          11 35 9 3 -1.</_>
        <_>
          14 36 3 1 9.</_></rects>
      <tilted>0</tilted></_>
    <_>
      <rects>
        <_>
          11 39 3 2 -1.</_>
        <_>
          12 39 1 2 3.</_></rects>
      <tilted>0</tilted></_>
    <_>
      <rects>
        <_>
          12 1 4 1 -1.</_>
        <_>
          14 1 2 1 2.</_></rects>
      <tilted>0</tilted></_>
    <_>
      <rects>
        <_>
          12 9 8 20 -1.</_>
        <_>
          12 14 8 10 2.</_></rects>
      <tilted>0</tilted></_>
    <_>
      <rects>
        <_>
          12 23 6 23 -1.</_>
        <_>
          14 23 2 23 3.</_></rects>
      <tilted>0</tilted></_>
    <_>
      <rects>
        <_>
          12 26 2 4 -1.</_>
        <_>
          12 26 1 2 2.</_>
        <_>
          13 28 1 2 2.</_></rects>
      <tilted>0</tilted></_>
    <_>
      <rects>
        <_>
          12 26 6 3 -1.</_>
        <_>
          12 26 3 3 2.</_></rects>
      <tilted>1</tilted></_>
    <_>
      <rects>
        <_>
          12 28 3 3 -1.</_>
        <_>
          13 29 1 1 9.</_></rects>
      <tilted>0</tilted></_>
    <_>
      <rects>
        <_>
          12 29 3 1 -1.</_>
        <_>
          13 29 1 1 3.</_></rects>
      <tilted>0</tilted></_>
    <_>
      <rects>
        <_>
          12 35 3 3 -1.</_>
        <_>
          13 35 1 3 3.</_></rects>
      <tilted>0</tilted></_>
    <_>
      <rects>
        <_>
          12 57 2 1 -1.</_>
        <_>
          13 57 1 1 2.</_></rects>
      <tilted>0</tilted></_>
    <_>
      <rects>
        <_>
          13 24 6 10 -1.</_>
        <_>
          13 29 6 5 2.</_></rects>
      <tilted>0</tilted></_>
    <_>
      <rects>
        <_>
          13 25 2 2 -1.</_>
        <_>
          13 25 1 1 2.</_>
        <_>
          14 26 1 1 2.</_></rects>
      <tilted>0</tilted></_>
    <_>
      <rects>
        <_>
          13 25 3 3 -1.</_>
        <_>
          14 26 1 1 9.</_></rects>
      <tilted>0</tilted></_>
    <_>
      <rects>
        <_>
          13 25 6 6 -1.</_>
        <_>
          15 27 2 2 9.</_></rects>
      <tilted>0</tilted></_>
    <_>
      <rects>
        <_>
          13 26 3 8 -1.</_>
        <_>
          11 28 3 4 2.</_></rects>
      <tilted>1</tilted></_>
    <_>
      <rects>
        <_>
          13 27 1 6 -1.</_>
        <_>
          11 29 1 2 3.</_></rects>
      <tilted>1</tilted></_>
    <_>
      <rects>
        <_>
          13 27 4 4 -1.</_>
        <_>
          13 27 4 2 2.</_></rects>
      <tilted>1</tilted></_>
    <_>
      <rects>
        <_>
          13 28 4 32 -1.</_>
        <_>
          13 36 4 16 2.</_></rects>
      <tilted>0</tilted></_>
    <_>
      <rects>
        <_>
          13 33 4 2 -1.</_>
        <_>
          13 33 2 2 2.</_></rects>
      <tilted>1</tilted></_>
    <_>
      <rects>
        <_>
          13 34 3 1 -1.</_>
        <_>
          14 34 1 1 3.</_></rects>
      <tilted>0</tilted></_>
    <_>
      <rects>
        <_>
          13 36 3 1 -1.</_>
        <_>
          14 36 1 1 3.</_></rects>
      <tilted>0</tilted></_>
    <_>
      <rects>
        <_>
          13 37 2 6 -1.</_>
        <_>
          13 37 1 3 2.</_>
        <_>
          14 40 1 3 2.</_></rects>
      <tilted>0</tilted></_>
    <_>
      <rects>
        <_>
          13 49 2 2 -1.</_>
        <_>
          13 49 1 1 2.</_>
        <_>
          14 50 1 1 2.</_></rects>
      <tilted>0</tilted></_>
    <_>
      <rects>
        <_>
          14 0 1 44 -1.</_>
        <_>
          14 11 1 22 2.</_></rects>
      <tilted>0</tilted></_>
    <_>
      <rects>
        <_>
          14 0 6 2 -1.</_>
        <_>
          17 0 3 2 2.</_></rects>
      <tilted>0</tilted></_>
    <_>
      <rects>
        <_>
          14 10 6 50 -1.</_>
        <_>
          17 10 3 50 2.</_></rects>
      <tilted>0</tilted></_>
    <_>
      <rects>
        <_>
          14 19 2 2 -1.</_>
        <_>
          14 19 1 1 2.</_>
        <_>
          15 20 1 1 2.</_></rects>
      <tilted>0</tilted></_>
    <_>
      <rects>
        <_>
          14 26 1 4 -1.</_>
        <_>
          14 26 1 2 2.</_></rects>
      <tilted>1</tilted></_>
    <_>
      <rects>
        <_>
          14 27 2 2 -1.</_>
        <_>
          14 27 1 1 2.</_>
        <_>
          15 28 1 1 2.</_></rects>
      <tilted>0</tilted></_>
    <_>
      <rects>
        <_>
          14 27 6 9 -1.</_>
        <_>
          16 30 2 3 9.</_></rects>
      <tilted>0</tilted></_>
    <_>
      <rects>
        <_>
          14 27 6 5 -1.</_>
        <_>
          14 27 3 5 2.</_></rects>
      <tilted>1</tilted></_>
    <_>
      <rects>
        <_>
          14 29 3 1 -1.</_>
        <_>
          15 29 1 1 3.</_></rects>
      <tilted>0</tilted></_>
    <_>
      <rects>
        <_>
          14 33 6 2 -1.</_>
        <_>
          16 33 2 2 3.</_></rects>
      <tilted>0</tilted></_>
    <_>
      <rects>
        <_>
          14 34 2 3 -1.</_>
        <_>
          14 35 2 1 3.</_></rects>
      <tilted>0</tilted></_>
    <_>
      <rects>
        <_>
          15 13 1 33 -1.</_>
        <_>
          15 24 1 11 3.</_></rects>
      <tilted>0</tilted></_>
    <_>
      <rects>
        <_>
          15 18 1 42 -1.</_>
        <_>
          15 39 1 21 2.</_></rects>
      <tilted>0</tilted></_>
    <_>
      <rects>
        <_>
          15 27 3 3 -1.</_>
        <_>
          16 28 1 1 9.</_></rects>
      <tilted>0</tilted></_>
    <_>
      <rects>
        <_>
          15 30 3 1 -1.</_>
        <_>
          16 30 1 1 3.</_></rects>
      <tilted>0</tilted></_>
    <_>
      <rects>
        <_>
          15 31 2 2 -1.</_>
        <_>
          15 31 1 1 2.</_>
        <_>
          16 32 1 1 2.</_></rects>
      <tilted>0</tilted></_>
    <_>
      <rects>
        <_>
          16 6 4 46 -1.</_>
        <_>
          18 6 2 46 2.</_></rects>
      <tilted>0</tilted></_>
    <_>
      <rects>
        <_>
          16 6 3 46 -1.</_>
        <_>
          16 29 3 23 2.</_></rects>
      <tilted>0</tilted></_>
    <_>
      <rects>
        <_>
          16 18 4 13 -1.</_>
        <_>
          17 19 2 13 2.</_></rects>
      <tilted>1</tilted></_>
    <_>
      <rects>
        <_>
          16 21 2 2 -1.</_>
        <_>
          16 21 1 1 2.</_>
        <_>
          17 22 1 1 2.</_></rects>
      <tilted>0</tilted></_>
    <_>
      <rects>
        <_>
          16 23 3 1 -1.</_>
        <_>
          17 23 1 1 3.</_></rects>
      <tilted>0</tilted></_>
    <_>
      <rects>
        <_>
          16 25 2 2 -1.</_>
        <_>
          16 25 1 1 2.</_>
        <_>
          17 26 1 1 2.</_></rects>
      <tilted>0</tilted></_>
    <_>
      <rects>
        <_>
          16 28 2 2 -1.</_>
        <_>
          16 28 1 1 2.</_>
        <_>
          17 29 1 1 2.</_></rects>
      <tilted>0</tilted></_>
    <_>
      <rects>
        <_>
          16 34 2 2 -1.</_>
        <_>
          16 34 1 1 2.</_>
        <_>
          17 35 1 1 2.</_></rects>
      <tilted>0</tilted></_>
    <_>
      <rects>
        <_>
          16 35 2 16 -1.</_>
        <_>
          16 35 2 8 2.</_></rects>
      <tilted>1</tilted></_>
    <_>
      <rects>
        <_>
          16 55 2 4 -1.</_>
        <_>
          16 56 2 2 2.</_></rects>
      <tilted>0</tilted></_>
    <_>
      <rects>
        <_>
          17 0 3 2 -1.</_>
        <_>
          17 1 3 1 2.</_></rects>
      <tilted>0</tilted></_>
    <_>
      <rects>
        <_>
          17 19 1 16 -1.</_>
        <_>
          17 19 1 8 2.</_></rects>
      <tilted>1</tilted></_>
    <_>
      <rects>
        <_>
          17 23 3 4 -1.</_>
        <_>
          18 23 1 4 3.</_></rects>
      <tilted>0</tilted></_>
    <_>
      <rects>
        <_>
          17 24 3 2 -1.</_>
        <_>
          18 24 1 2 3.</_></rects>
      <tilted>0</tilted></_>
    <_>
      <rects>
        <_>
          17 24 3 6 -1.</_>
        <_>
          17 24 3 3 2.</_></rects>
      <tilted>1</tilted></_>
    <_>
      <rects>
        <_>
          17 27 3 3 -1.</_>
        <_>
          18 28 1 1 9.</_></rects>
      <tilted>0</tilted></_>
    <_>
      <rects>
        <_>
          17 30 3 3 -1.</_>
        <_>
          18 31 1 1 9.</_></rects>
      <tilted>0</tilted></_>
    <_>
      <rects>
        <_>
          18 0 2 2 -1.</_>
        <_>
          18 1 2 1 2.</_></rects>
      <tilted>0</tilted></_>
    <_>
      <rects>
        <_>
          18 0 2 2 -1.</_>
        <_>
          18 0 2 1 2.</_></rects>
      <tilted>1</tilted></_>
    <_>
      <rects>
        <_>
          18 0 2 6 -1.</_>
        <_>
          18 3 2 3 2.</_></rects>
      <tilted>0</tilted></_>
    <_>
      <rects>
        <_>
          18 1 1 6 -1.</_>
        <_>
          18 4 1 3 2.</_></rects>
      <tilted>0</tilted></_>
    <_>
      <rects>
        <_>
          18 1 2 2 -1.</_>
        <_>
          18 1 2 1 2.</_></rects>
      <tilted>1</tilted></_>
    <_>
      <rects>
        <_>
          18 20 1 30 -1.</_>
        <_>
          18 35 1 15 2.</_></rects>
      <tilted>0</tilted></_>
    <_>
      <rects>
        <_>
          18 22 2 16 -1.</_>
        <_>
          18 22 2 8 2.</_></rects>
      <tilted>1</tilted></_>
    <_>
      <rects>
        <_>
          18 23 2 12 -1.</_>
        <_>
          18 23 1 6 2.</_>
        <_>
          19 29 1 6 2.</_></rects>
      <tilted>0</tilted></_>
    <_>
      <rects>
        <_>
          18 25 2 6 -1.</_>
        <_>
          18 25 1 3 2.</_>
        <_>
          19 28 1 3 2.</_></rects>
      <tilted>0</tilted></_>
    <_>
      <rects>
        <_>
          18 40 2 6 -1.</_>
        <_>
          19 40 1 6 2.</_></rects>
      <tilted>0</tilted></_>
    <_>
      <rects>
        <_>
          18 52 2 1 -1.</_>
        <_>
          19 52 1 1 2.</_></rects>
      <tilted>0</tilted></_>
    <_>
      <rects>
        <_>
          18 53 2 5 -1.</_>
        <_>
          19 53 1 5 2.</_></rects>
      <tilted>0</tilted></_>
    <_>
      <rects>
        <_>
          18 56 2 1 -1.</_>
        <_>
          19 56 1 1 2.</_></rects>
      <tilted>0</tilted></_>
    <_>
      <rects>
        <_>
          19 0 1 8 -1.</_>
        <_>
          19 4 1 4 2.</_></rects>
      <tilted>0</tilted></_>
    <_>
      <rects>
        <_>
          19 3 1 12 -1.</_>
        <_>
          19 7 1 4 3.</_></rects>
      <tilted>0</tilted></_>
    <_>
      <rects>
        <_>
          19 10 1 2 -1.</_>
        <_>
          19 11 1 1 2.</_></rects>
      <tilted>0</tilted></_>
    <_>
      <rects>
        <_>
          19 20 1 12 -1.</_>
        <_>
          19 20 1 6 2.</_></rects>
      <tilted>1</tilted></_>
    <_>
      <rects>
        <_>
          19 55 1 2 -1.</_>
        <_>
          19 56 1 1 2.</_></rects>
      <tilted>0</tilted></_>
    <_>
      <rects>
        <_>
          19 58 1 2 -1.</_>
        <_>
          19 59 1 1 2.</_></rects>
      <tilted>0</tilted></_></features></cascade>
</opencv_storage>
